{"learner":{"attributes":{"best_iteration":"104","best_score":"0.9395673701330377"},"feature_names":["cat_enc","colisage_fardeau","colisage_palette","cv_28","day_idx","day_idx_sq","days_since","days_since_ramadan","days_to_eid_adha","days_to_eid_fitr","days_to_national_holiday","days_to_ramadan","del_avg_qty","del_n_days","del_qty_rolling_28","del_qty_rolling_7","del_rolling_14","del_rolling_28","del_rolling_7","del_total_count","del_total_qty","dfreq_14","dfreq_28","dfreq_60","dfreq_7","dom","dow","eid_adha_prep","eid_fitr_prep","ewm28_norm","ewm7_norm","ewm_28","ewm_7","fourier_cos_m1","fourier_cos_m2","fourier_cos_w1","fourier_cos_w2","fourier_cos_y1","fourier_cos_y2","fourier_cos_y3","fourier_cos_y4","fourier_sin_m1","fourier_sin_m2","fourier_sin_w1","fourier_sin_w2","fourier_sin_y1","fourier_sin_y2","fourier_sin_y3","fourier_sin_y4","hf_x_days_since","hf_x_dfreq7","hf_x_dow","hf_x_eid_adha","hf_x_eid_fitr","hf_x_is_wknd","hf_x_lag1","hf_x_month","hf_x_prophet","hf_x_ramadan","hf_x_ramadan_prep","hf_x_rmean7","is_any_holiday","is_ashura","is_eid_adha","is_eid_fitr","is_gerbable","is_hf","is_islamic_new_year","is_mawlid","is_month_end","is_month_start","is_national_holiday","is_ramadan","is_week_start","is_wknd","lag1_norm","lag_1","lag_14","lag_2","lag_21","lag_28","lag_3","lag_7","lag_w1","lag_w2","lag_w4","month","p_avg","p_days","p_demand_score","p_freq","p_freq_score","p_prio","p_total","poids_kg","pre_holiday_3d","prod_avg_demand","prod_med_demand","prod_n_days","prod_std_demand","prophet_over_ewm7","prophet_over_rmean7","prophet_ratio","prophet_resid_lag1","prophet_resid_rmean7","prophet_seasonal_str","prophet_trend","prophet_trend_norm","prophet_weekly","prophet_weekly_abs","prophet_yearly","prophet_yearly_abs","prophet_yhat","qtr","ramadan_day","ramadan_last_week","ramadan_prep","ramadan_progress","rmax_14","rmax_28","rmax_7","rmean28_norm","rmean7_norm","rmean7_over_28","rmean_14","rmean_28","rmean_3","rmean_60","rmean_7","rmean_wday4","rmean_wday4_norm","rmed_14","rmed_28","rmed_7","rmin_14","rmin_28","rmin_7","rstd_14","rstd_28","rstd_3","rstd_60","rstd_7","rsum_14","rsum_28","rsum_7","volume_pcs","week"],"feature_types":["float","float","float","float","float","float","float","float","float","float","float","float","float","float","float","float","float","float","float","float","float","float","float","float","float","float","float","float","float","float","float","float","float","float","float","float","float","float","float","float","float","float","float","float","float","float","float","float","float","float","float","float","float","float","float","float","float","float","float","float","float","float","float","float","float","float","float","float","float","float","float","float","float","float","float","float","float","float","float","float","float","float","float","float","float","float","float","float","int","float","float","float","float","int","float","float","float","float","int","float","float","float","float","float","float","float","float","float","float","float","float","float","float","float","float","float","float","float","float","float","float","float","float","float","float","float","float","float","float","float","float","float","float","float","float","float","float","float","float","float","float","float","float","float","float","float","float"],"gradient_booster":{"model":{"cats":{"enc":[],"feature_segments":[],"sorted_idx":[]},"gbtree_model_param":{"num_parallel_tree":"1","num_trees":"155"},"iteration_indptr":[0,1,2,3,4,5,6,7,8,9,10,11,12,13,14,15,16,17,18,19,20,21,22,23,24,25,26,27,28,29,30,31,32,33,34,35,36,37,38,39,40,41,42,43,44,45,46,47,48,49,50,51,52,53,54,55,56,57,58,59,60,61,62,63,64,65,66,67,68,69,70,71,72,73,74,75,76,77,78,79,80,81,82,83,84,85,86,87,88,89,90,91,92,93,94,95,96,97,98,99,100,101,102,103,104,105,106,107,108,109,110,111,112,113,114,115,116,117,118,119,120,121,122,123,124,125,126,127,128,129,130,131,132,133,134,135,136,137,138,139,140,141,142,143,144,145,146,147,148,149,150,151,152,153,154,155],"tree_info":[0,0,0,0,0,0,0,0,0,0,0,0,0,0,0,0,0,0,0,0,0,0,0,0,0,0,0,0,0,0,0,0,0,0,0,0,0,0,0,0,0,0,0,0,0,0,0,0,0,0,0,0,0,0,0,0,0,0,0,0,0,0,0,0,0,0,0,0,0,0,0,0,0,0,0,0,0,0,0,0,0,0,0,0,0,0,0,0,0,0,0,0,0,0,0,0,0,0,0,0,0,0,0,0,0,0,0,0,0,0,0,0,0,0,0,0,0,0,0,0,0,0,0,0,0,0,0,0,0,0,0,0,0,0,0,0,0,0,0,0,0,0,0,0,0,0,0,0,0,0,0,0,0,0,0],"trees":[{"base_weights":[1.9722336E-3,-1.5857874E0,1.252145E0,-1.8094975E0,-8.216087E-1,4.8676434E-1,1.5718871E0,-1.9047915E0,-1.6305736E0,-1.4525107E0,-6.45851E-1,-1.0374339E0,5.7050544E-1,1.6095363E0,-1.4268337E0,-1.6153754E0,-1.918121E0,-1.7542202E0,-1.4877114E0,-1.8107429E0,-1.1762516E0,-1.1059924E0,-2.0633715E-1,-1.5966035E0,-5.302203E-1,-5.052704E-2,8.948147E-1,-1.0849962E0,1.641736E0,-7.97655E-2,7.692935E-2,-1.7017195E0,-1.0816096E0,-1.948077E0,-1.8264418E0,-1.8223689E0,-1.6672616E0,-1.5856502E0,-1.1497841E0,-1.8281583E0,1.8500285E-2,-1.5632961E0,-9.703218E-1,-8.912994E-1,-1.598584E0,-6.116734E-1,1.5369227E-2,-1.6464801E0,2.4726237E-3,-1.2366953E0,-2.2162884E-1,3.3954298E-1,-1.1714566E0,4.7795242E-1,1.0370961E0,1.8052826E0,-7.932058E-2,1.2481778E0,1.792885E0,-1.7668432E0,-9.084711E-1,6.074208E-1,-1.3897688E0,-1.9674846E0,-1.9059452E0,-1.4995847E0,-1.8385972E0,-1.7176312E0,-1.9297446E0,-1.686604E0,-9.404604E-1,-1.6216302E0,-9.415122E-1,-1.1816494E0,6.9852155E-1,-1.8530406E0,-1.1063339E0,-1.281802E0,-1.8026023E0,-1.2866391E0,-8.527836E-1,-1.1785445E0,-5.9638596E-1,-7.849516E-1,-7.987307E-2,-7.734516E-1,-9.900468E-2,-1.6871361E-1,2.8223187E-1,-1.1115603E0,-1.7474118E0,-2.9518437E-2,3.3231154E-2,-1.4549539E0,-4.059611E-1,-7.8756556E-2,-1.4827075E0,-4.1354388E-2,5.8747435E-1,5.9708536E-1,-7.959852E-2,4.0252566E-1,8.6366767E-1,1.0473776E0,-7.6350875E-2,3.479182E-2,7.381876E-2,7.7654696E-1,1.4345238E0,1.7990069E0,-7.786008E-2,-7.175564E-2,-2.0634381E-2,2.4285486E-2,-6.820147E-2,3.0399433E-3,4.6665434E-2,2.4534082E-2,-6.251459E-2,-7.63725E-2,-7.921338E-2,-7.636251E-2,-4.0981878E-2,-7.6851524E-2,-3.195254E-2,-7.371858E-2,-4.9329977E-2,-6.443225E-2,-7.460866E-2,-7.988456E-2,-7.4499056E-2,-7.248323E-2,-6.316384E-2,1.3984958E-2,-6.1753735E-2,-6.525382E-2,-7.340571E-3,-5.68377E-2,-1.6298318E-2,-3.0018747E-2,-4.985568E-2,4.201077E-2,-0E0,-3.824278E-2,-7.452063E-2,-7.6133825E-2,4.1321583E-2,-1.5765334E-2,-5.560122E-2,-7.5306274E-2,-4.4599146E-2,-5.5336848E-2,-3.0052662E-2,-4.1936945E-2,-1.8254269E-2,-4.910461E-2,-1.7076286E-2,-2.9750215E-2,-1.103509E-2,-3.7289068E-2,2.9403007E-2,-3.1974677E-2,2.7951088E-2,-1.8057235E-2,9.25569E-3,-5.1683765E-3,-3.647734E-2,2.790899E-2,1.2734574E-3,6.2051895E-3,-5.5124935E-2,-7.6876804E-2,-6.2301777E-2,-3.794879E-2,-6.850656E-2,6.507794E-3,-6.938776E-2,2.0157502E-3,-3.2228872E-2,-6.509239E-2,-3.0144595E-2,-7.877507E-4,-6.808489E-2,2.4255788E-2,-7.472081E-2,-2.3384516E-3,3.5265476E-2,-7.2676055E-2,1.6643668E-2,2.671057E-2,5.3279478E-2,-7.154823E-2,4.2312402E-2,4.8797812E-2,9.744682E-3,5.7717606E-2,-7.504761E-2,-7.7552944E-2,7.217428E-2],"categories":[],"categories_nodes":[],"categories_segments":[],"categories_sizes":[],"default_left":[0,0,0,0,0,0,0,0,0,0,0,0,0,0,0,0,0,0,0,0,0,0,0,0,0,0,0,0,0,0,0,0,0,0,0,0,0,0,0,0,0,0,0,0,0,0,0,0,0,0,0,0,0,0,0,0,0,0,0,0,0,0,0,0,0,0,0,0,0,0,0,0,0,0,0,0,0,0,0,0,0,0,0,0,0,0,0,0,0,0,0,0,0,0,0,0,0,0,0,0,0,0,0,0,0,0,0,0,0,0,0,0,0,0,0,0,0,0,0,0,0,0,0,0,0,0,0,0,0,0,0,0,0,0,0,0,0,0,0,0,0,0,0,0,0,0,0,0,0,0,0,0,0,0,0,0,0,0,0,0,0,0,0,0,0,0,0,0,0,0,0,0,0,0,0,0,0,0,0,0,0,0,0,0,0,0,0,0,0,0,0,0,0,0,0,0,0,0,0],"id":0,"left_children":[1,3,5,7,9,11,13,15,17,19,21,23,25,27,29,31,33,35,37,39,41,43,45,47,49,51,53,55,57,-1,-1,59,61,63,65,67,69,71,73,75,-1,77,79,81,83,85,87,89,91,93,95,97,99,101,103,105,-1,107,109,111,113,115,117,119,121,123,125,127,129,131,133,135,137,139,141,143,145,147,149,151,153,155,157,159,-1,161,163,165,167,169,171,-1,-1,173,175,177,179,181,183,185,-1,187,189,191,-1,-1,-1,193,195,197,-1,-1,-1,-1,-1,-1,-1,-1,-1,-1,-1,-1,-1,-1,-1,-1,-1,-1,-1,-1,-1,-1,-1,-1,-1,-1,-1,-1,-1,-1,-1,-1,-1,-1,-1,-1,-1,-1,-1,-1,-1,-1,-1,-1,-1,-1,-1,-1,-1,-1,-1,-1,-1,-1,-1,-1,-1,-1,-1,-1,-1,-1,-1,-1,-1,-1,-1,-1,-1,-1,-1,-1,-1,-1,-1,-1,-1,-1,-1,-1,-1,-1,-1,-1,-1,-1,-1,-1,-1],"loss_changes":[5.2462425E5,1.9898281E4,3.6183812E4,1.5244688E3,2.9203809E3,5.5634766E3,1.1781969E4,2.1554688E2,5.437969E2,5.604629E2,4.1711914E3,6.4025977E2,8.320394E3,8.942625E3,2.472003E3,1.13239746E2,1.41625E2,8.851953E1,4.7479297E2,1.0195947E2,2.5336328E2,1.0603008E3,9.490051E2,8.679761E1,2.5904953E2,6.198921E3,1.6073555E3,3.1721543E3,6.0467812E3,0E0,0E0,1.09461426E2,1.9656995E2,2.1375E1,4.519922E1,9.3572266E1,9.8052734E1,2.5541211E2,1.9601514E2,3.684082E1,0E0,6.721118E1,7.487695E1,5.922295E2,9.8369336E2,3.0897974E2,3.3553586E2,4.919165E1,2.3531446E1,6.297931E1,1.4951144E2,9.9350354E2,5.302328E3,1.9941858E2,6.1825977E2,4.7352905E0,0E0,2.478879E3,1.6938438E3,6.592236E1,2.1680396E2,1.6718365E1,1.1284961E2,8.2734375E0,2.9578125E1,1.4632971E2,2.6976562E1,6.446973E1,7.751953E0,8.698633E1,1.574779E2,1.4730078E2,1.5207007E2,8.630029E1,1.4462431E1,1.46171875E1,1.6085277E2,4.815204E1,2.5173584E1,2.5363464E1,1.1910449E2,1.2874121E2,1.629563E2,2.2807013E2,0E0,1.09956055E2,1.0518634E2,1.17753716E2,2.897077E2,6.033957E1,1.8223389E1,0E0,0E0,3.1007996E1,6.208728E1,7.134134E1,4.0455475E0,1.4827258E2,2.987671E2,2.1696472E2,0E0,1.7584363E2,9.971698E1,6.0181055E2,0E0,0E0,0E0,1.8910723E3,5.721367E2,1.4786406E3,0E0,0E0,0E0,0E0,0E0,0E0,0E0,0E0,0E0,0E0,0E0,0E0,0E0,0E0,0E0,0E0,0E0,0E0,0E0,0E0,0E0,0E0,0E0,0E0,0E0,0E0,0E0,0E0,0E0,0E0,0E0,0E0,0E0,0E0,0E0,0E0,0E0,0E0,0E0,0E0,0E0,0E0,0E0,0E0,0E0,0E0,0E0,0E0,0E0,0E0,0E0,0E0,0E0,0E0,0E0,0E0,0E0,0E0,0E0,0E0,0E0,0E0,0E0,0E0,0E0,0E0,0E0,0E0,0E0,0E0,0E0,0E0,0E0,0E0,0E0,0E0,0E0,0E0,0E0,0E0,0E0,0E0,0E0,0E0,0E0,0E0,0E0,0E0,0E0],"parents":[2147483647,0,0,1,1,2,2,3,3,4,4,5,5,6,6,7,7,8,8,9,9,10,10,11,11,12,12,13,13,14,14,15,15,16,16,17,17,18,18,19,19,20,20,21,21,22,22,23,23,24,24,25,25,26,26,27,27,28,28,31,31,32,32,33,33,34,34,35,35,36,36,37,37,38,38,39,39,41,41,42,42,43,43,44,44,45,45,46,46,47,47,48,48,49,49,50,50,51,51,52,52,53,53,54,54,55,55,57,57,58,58,59,59,60,60,61,61,62,62,63,63,64,64,65,65,66,66,67,67,68,68,69,69,70,70,71,71,72,72,73,73,74,74,75,75,76,76,77,77,78,78,79,79,80,80,81,81,82,82,83,83,85,85,86,86,87,87,88,88,89,89,90,90,93,93,94,94,95,95,96,96,97,97,98,98,99,99,101,101,102,102,103,103,107,107,108,108,109,109],"right_children":[2,4,6,8,10,12,14,16,18,20,22,24,26,28,30,32,34,36,38,40,42,44,46,48,50,52,54,56,58,-1,-1,60,62,64,66,68,70,72,74,76,-1,78,80,82,84,86,88,90,92,94,96,98,100,102,104,106,-1,108,110,112,114,116,118,120,122,124,126,128,130,132,134,136,138,140,142,144,146,148,150,152,154,156,158,160,-1,162,164,166,168,170,172,-1,-1,174,176,178,180,182,184,186,-1,188,190,192,-1,-1,-1,194,196,198,-1,-1,-1,-1,-1,-1,-1,-1,-1,-1,-1,-1,-1,-1,-1,-1,-1,-1,-1,-1,-1,-1,-1,-1,-1,-1,-1,-1,-1,-1,-1,-1,-1,-1,-1,-1,-1,-1,-1,-1,-1,-1,-1,-1,-1,-1,-1,-1,-1,-1,-1,-1,-1,-1,-1,-1,-1,-1,-1,-1,-1,-1,-1,-1,-1,-1,-1,-1,-1,-1,-1,-1,-1,-1,-1,-1,-1,-1,-1,-1,-1,-1,-1,-1,-1,-1,-1,-1,-1],"split_conditions":[7.840978E-2,2.3591124E-2,2.5636935E-1,5E0,9.438694E-6,1.080422E-2,5.134449E-1,9.132823E-24,2.693889E-8,6.0407106E-18,0E0,3.0201618E-4,-3.6442478E-5,-3.035214E-1,-2.2252093E-1,6.13E2,3E0,6.234898E-1,1.4524547E-5,6.08E2,-1.19676995E-4,7.818315E-1,4.029545E-2,7.204713E-1,-6.5073086E-4,7.818315E-1,1.1956652E-1,7.818315E-1,3.279827E-2,-7.97655E-2,7.692935E-2,4.8E1,-9.965751E-1,2E0,-9.947883E-1,4E0,9.943406E-1,1.6156261E1,5E0,5.1E1,1.8500285E-2,4.3388373E-1,2.7046796E-2,4.383335E-2,2E0,1.4059407E-3,2.7649498E-3,9.622529E-4,2.4E1,5.422022E-1,1E0,1.3827847E-1,2E0,3.75E1,1E0,4.5857144E2,-7.932058E-2,-2.5113982E-3,1E0,9.992921E-1,-9.8853123E-1,2.0016247E-1,2E0,2.070937E-16,4E2,5.25E2,2.5E2,1.1123529E2,5E0,3.18E2,-9.3160135E-1,6.6E1,5.35E2,1.1E1,4E0,3E0,1.6E1,1.2E3,5.3066666E1,1.0114505E-3,4.64E2,4.1E1,6.7646346E0,6.6E1,-7.987307E-2,1.7857143E-1,2.4E1,9.8667616E-1,5.0333557E0,-8.9780456E-1,2.6928335E-3,-2.9518437E-2,3.3231154E-2,4E0,1.656373E-2,3.7796447E0,4.39E2,1E0,1E0,1.1179583E-1,-7.959852E-2,5E0,1.8218493E-2,5E0,-7.6350875E-2,3.479182E-2,7.381876E-2,4E0,1E0,4E0,-7.786008E-2,-7.175564E-2,-2.0634381E-2,2.4285486E-2,-6.820147E-2,3.0399433E-3,4.6665434E-2,2.4534082E-2,-6.251459E-2,-7.63725E-2,-7.921338E-2,-7.636251E-2,-4.0981878E-2,-7.6851524E-2,-3.195254E-2,-7.371858E-2,-4.9329977E-2,-6.443225E-2,-7.460866E-2,-7.988456E-2,-7.4499056E-2,-7.248323E-2,-6.316384E-2,1.3984958E-2,-6.1753735E-2,-6.525382E-2,-7.340571E-3,-5.68377E-2,-1.6298318E-2,-3.0018747E-2,-4.985568E-2,4.201077E-2,-0E0,-3.824278E-2,-7.452063E-2,-7.6133825E-2,4.1321583E-2,-1.5765334E-2,-5.560122E-2,-7.5306274E-2,-4.4599146E-2,-5.5336848E-2,-3.0052662E-2,-4.1936945E-2,-1.8254269E-2,-4.910461E-2,-1.7076286E-2,-2.9750215E-2,-1.103509E-2,-3.7289068E-2,2.9403007E-2,-3.1974677E-2,2.7951088E-2,-1.8057235E-2,9.25569E-3,-5.1683765E-3,-3.647734E-2,2.790899E-2,1.2734574E-3,6.2051895E-3,-5.5124935E-2,-7.6876804E-2,-6.2301777E-2,-3.794879E-2,-6.850656E-2,6.507794E-3,-6.938776E-2,2.0157502E-3,-3.2228872E-2,-6.509239E-2,-3.0144595E-2,-7.877507E-4,-6.808489E-2,2.4255788E-2,-7.472081E-2,-2.3384516E-3,3.5265476E-2,-7.2676055E-2,1.6643668E-2,2.671057E-2,5.3279478E-2,-7.154823E-2,4.2312402E-2,4.8797812E-2,9.744682E-3,5.7717606E-2,-7.504761E-2,-7.7552944E-2,7.217428E-2],"split_indices":[107,107,107,98,32,29,109,29,32,32,108,29,108,108,35,4,98,35,108,4,108,44,107,111,108,44,107,44,90,0,0,146,48,98,48,26,48,32,17,146,0,44,107,107,26,111,105,109,25,37,72,107,26,124,63,124,0,108,71,48,47,92,25,31,14,4,14,96,26,4,37,98,4,10,16,1,10,2,112,111,4,88,32,88,0,22,118,40,100,41,108,0,0,26,105,138,4,28,71,107,0,7,105,7,0,0,0,26,63,7,0,0,0,0,0,0,0,0,0,0,0,0,0,0,0,0,0,0,0,0,0,0,0,0,0,0,0,0,0,0,0,0,0,0,0,0,0,0,0,0,0,0,0,0,0,0,0,0,0,0,0,0,0,0,0,0,0,0,0,0,0,0,0,0,0,0,0,0,0,0,0,0,0,0,0,0,0,0,0,0,0,0,0,0,0,0,0,0,0],"split_type":[0,0,0,0,0,0,0,0,0,0,0,0,0,0,0,0,0,0,0,0,0,0,0,0,0,0,0,0,0,0,0,0,0,0,0,0,0,0,0,0,0,0,0,0,0,0,0,0,0,0,0,0,0,0,0,0,0,0,0,0,0,0,0,0,0,0,0,0,0,0,0,0,0,0,0,0,0,0,0,0,0,0,0,0,0,0,0,0,0,0,0,0,0,0,0,0,0,0,0,0,0,0,0,0,0,0,0,0,0,0,0,0,0,0,0,0,0,0,0,0,0,0,0,0,0,0,0,0,0,0,0,0,0,0,0,0,0,0,0,0,0,0,0,0,0,0,0,0,0,0,0,0,0,0,0,0,0,0,0,0,0,0,0,0,0,0,0,0,0,0,0,0,0,0,0,0,0,0,0,0,0,0,0,0,0,0,0,0,0,0,0,0,0,0,0,0,0,0,0],"sum_hessian":[2.6429188E5,1.1642596E5,1.4786592E5,9.0057305E4,2.6368658E4,4.3572832E4,1.04293086E5,5.8740598E4,3.1316707E4,5.739922E3,2.0628736E4,2.2671729E3,4.1305656E4,1.03001445E5,1.2916353E3,2.6040598E3,5.613654E4,1.6767326E4,1.454938E4,2.491133E3,3.248789E3,1.00751E4,1.0553637E4,1.0748225E3,1.1923505E3,1.4170673E4,2.7134984E4,1.2149918E3,1.0178645E5,1.10575E3,1.858853E2,2.235014E3,3.6904584E2,4.22615E4,1.3875037E4,9.363574E3,7.403753E3,1.1270408E4,3.278971E3,2.4729949E3,1.813831E1,1.1205385E3,2.1282505E3,7.0234253E3,3.0516738E3,3.7304302E3,6.8232065E3,1.0425288E3,3.2293633E1,3.592522E2,8.3309827E2,1.0513683E4,3.6569902E3,6.9090703E3,2.0225914E4,2.8716412E2,9.2782764E2,2.8253014E4,7.3533445E4,2.0614607E3,1.7355324E2,5.624259E1,3.1280325E2,2.8831516E4,1.3429984E4,5.1234686E2,1.3362689E4,4.768183E3,4.5953906E3,7.2072944E3,1.9645856E2,1.0669128E4,6.01281E2,3.2247283E3,5.424259E1,2.3853735E3,8.762129E1,5.246065E2,5.9593195E2,5.673395E2,1.5609111E3,3.552558E3,3.4708672E3,1.0061737E3,2.0455E3,2.833718E3,8.9671216E2,4.0374136E3,2.7857932E3,1.7199258E2,8.7053625E2,1.6905323E1,1.53883095E1,2.8224258E2,7.7009605E1,7.515376E2,8.1560646E1,4.145471E3,6.368212E3,1.1570848E3,2.4999053E3,5.785199E3,1.1238711E3,2.0157664E4,6.825E1,1.51383095E1,2.7202582E2,8.006707E3,2.0246307E4,7.3414945E4,1.185E2,2.0161671E3,4.5293633E1,5.9820255E1,1.1373299E2,3.1043634E1,2.5198957E1,2.4043634E1,2.887596E2,5.304711E3,2.3526805E4,1.3378596E4,5.138831E1,3.1615533E2,1.9619154E2,1.3260068E4,1.0262129E2,2.7887588E3,1.9794246E3,2.24925E3,2.3461406E3,3.3016257E3,3.9056685E3,6.274259E1,1.3371597E2,1.059679E4,7.2337265E1,3.137256E2,2.8755545E2,4.2692673E2,2.7978015E3,3.5431946E1,1.8810648E1,2.9982986E1,2.3553906E3,6.425E1,2.3371296E1,5.902662E1,4.6557986E2,5.2846594E2,6.746597E1,4.7565753E2,9.1681946E1,1.0409822E3,5.1992896E2,3.3324348E3,2.2012349E2,2.3738518E3,1.0970154E3,9.186545E2,8.751921E1,2.7863806E3,4.733727E1,4.3409167E2,4.6262048E2,3.8376274E3,1.9978622E2,1.0447816E3,1.7410116E3,2.9793634E1,1.4219896E2,4.3798297E2,4.3255325E2,1.0060428E2,1.816383E2,5.5509605E1,2.15E1,6.399503E2,1.11587265E2,6.440533E1,1.7155323E1,4.0953936E3,5.0077663E1,6.321962E3,4.625E1,3.504193E2,8.066655E2,3.25E1,5.752699E3,7.982846E2,3.2558646E2,7.182766E1,2.0085836E4,4.367847E3,3.6388596E3,2.0196807E4,4.95E1,1.0325E2,7.3311695E4],"tree_param":{"num_deleted":"0","num_feature":"147","num_nodes":"199","size_leaf_vector":"1"}},{"base_weights":[3.1572073E-3,-1.5146126E0,1.2120484E0,-1.7419878E0,-7.6528484E-1,1.528546E-1,1.4921893E0,-1.8256197E0,-1.5568644E0,-9.959745E-1,-3.167476E-1,6.648135E-1,-4.2194352E-1,1.0093243E0,1.7081223E0,-1.6033739E0,-1.8403243E0,-1.625562E0,-1.2988724E0,-1.2698811E0,-3.8125047E-1,-6.5039605E-1,2.1487375E-1,-9.582381E-1,7.8875905E-1,-7.735793E-2,5.5870616E-1,7.8997606E-1,1.3030765E0,1.7255267E0,-6.545058E-1,-5.74282E-1,-1.6520385E0,-1.8795112E0,-1.7582628E0,-1.6330793E0,4.2039272E-1,-1.606967E0,-1.0606409E0,-1.8344337E0,-1.1739702E0,-1.3618783E0,-2.7037403E-1,-1.3853697E0,-5.803071E-1,5.7715744E-1,-1.8223774E-1,-1.709909E0,-6.366124E-1,4.3633723E-1,1.1439227E0,-1.0816975E0,6.801672E-1,8.2096624E-1,-1.6486298E0,1.3216118E0,-6.0725766E-1,1.7315876E0,-1.7565974E0,-7.9125844E-2,7.373072E-2,5.5565577E-2,-1.6407132E0,-5.6094396E-1,-1.6903096E0,-1.8806511E0,-4.3031853E-1,-1.513029E0,-1.767299E0,-1.6470174E0,-1.0207382E0,9.2289007E-1,-4.8693042E-2,-1.8234941E0,-1.3606435E0,-8.0958617E-1,-1.2735097E0,-1.8437448E0,-3.2933984E-2,-1.2000573E0,3.7068295E-1,-6.0093653E-1,-1.8326321E0,3.8230743E-2,-5.5170053E-1,-6.9331294E-1,-1.5501045E0,-5.4254943E-1,-7.696334E-2,-1.0593312E0,6.203717E-1,-5.664611E-1,5.134798E-1,-3.2202213E-3,-1.7829739E0,-1.1778822E0,-1.8831152E-1,1.2739386E-1,8.968266E-1,1.1588542E0,-7.302332E-2,-1.7158328E0,-7.0908064E-1,3.401747E-1,1.053246E0,4.2787138E-1,1.0144241E0,-7.853132E-2,3.5863515E-2,1.0452765E0,1.4095198E0,-7.752137E-2,6.673499E-2,1.575596E0,1.8201936E0,-7.8856164E-1,-8.033354E-2,-2.5820345E-2,-7.108346E-2,-5.1827315E-2,5.30727E-2,-1.4744919E-2,-6.839768E-2,-7.5908564E-2,-7.351864E-2,-6.442198E-2,3.6551997E-2,-4.474403E-2,-6.851725E-2,-7.099793E-2,-5.880379E-2,-6.2239807E-2,-6.87053E-2,-5.859704E-2,-2.9739982E-2,4.0604817E-3,5.7996772E-2,-4.975556E-2,-7.4140295E-2,-4.8868656E-2,-7.474999E-2,-2.8603276E-2,-6.287926E-2,-5.785554E-2,-3.328187E-2,-3.6528595E-2,-7.4127354E-2,-3.9757714E-2,-5.487183E-2,2.4467282E-2,-6.574332E-2,4.3160275E-2,-3.0374128E-2,-7.5370006E-2,-2.2349555E-2,-5.1194853E-3,1.064428E-2,-3.369132E-2,3.0449717E-3,-3.6250908E-2,1.630603E-2,-6.747317E-2,-1.1962363E-2,-3.402335E-2,-1.5595591E-2,1.2755598E-2,-6.974379E-2,1.5681999E-2,3.5714142E-2,-1.642241E-3,-3.6564834E-2,-3.135741E-2,2.3713635E-2,-2.7659982E-2,-7.334949E-2,-6.0928877E-2,-2.8839283E-2,2.2511391E-3,-4.2123206E-2,-5.4211677E-3,1.6424421E-2,3.7018385E-2,-3.2038603E-2,2.054235E-2,4.8379835E-2,-7.311882E-2,-7.045849E-3,3.620676E-2,-3.56112E-2,3.865443E-4,2.862607E-2,4.3533996E-2,-7.380275E-2,1.9475834E-2,-1.585815E-2,4.1181996E-2,-7.7836916E-2,3.5104107E-2,4.7135584E-2,5.4327663E-2,6.227046E-2,6.342085E-2,-3.6781777E-3,7.303951E-2,4.4280346E-2,-6.7856056E-3,-4.918826E-2],"categories":[],"categories_nodes":[],"categories_segments":[],"categories_sizes":[],"default_left":[0,0,0,0,0,0,0,0,0,0,0,0,0,0,0,0,0,0,0,0,0,0,0,0,0,0,0,0,0,0,0,0,0,0,0,0,0,0,0,0,0,0,0,0,0,0,0,0,0,0,0,0,0,0,0,0,0,0,0,0,0,0,0,0,0,0,0,0,0,0,0,0,0,0,0,0,0,0,0,0,0,0,0,0,0,0,0,0,0,0,0,0,0,0,0,0,0,0,0,0,0,0,0,0,0,0,0,0,0,0,0,0,0,0,0,0,0,0,0,0,0,0,0,0,0,0,0,0,0,0,0,0,0,0,0,0,0,0,0,0,0,0,0,0,0,0,0,0,0,0,0,0,0,0,0,0,0,0,0,0,0,0,0,0,0,0,0,0,0,0,0,0,0,0,0,0,0,0,0,0,0,0,0,0,0,0,0,0,0,0,0,0,0,0,0,0,0,0,0,0,0,0,0,0,0,0,0],"id":1,"left_children":[1,3,5,7,9,11,13,15,17,19,21,23,25,27,29,31,33,35,37,39,41,43,45,47,49,-1,51,53,55,57,59,61,63,65,67,69,71,73,75,77,79,81,83,85,87,89,91,93,95,97,99,101,103,105,107,109,111,113,115,-1,-1,-1,117,119,121,123,125,127,129,131,133,135,-1,137,139,141,143,145,-1,147,149,151,153,155,157,159,161,163,-1,165,167,169,171,-1,173,175,177,179,181,183,-1,185,187,189,191,193,195,-1,-1,197,199,-1,-1,201,203,205,-1,-1,-1,-1,-1,-1,-1,-1,-1,-1,-1,-1,-1,-1,-1,-1,-1,-1,-1,-1,-1,-1,-1,-1,-1,-1,-1,-1,-1,-1,-1,-1,-1,-1,-1,-1,-1,-1,-1,-1,-1,-1,-1,-1,-1,-1,-1,-1,-1,-1,-1,-1,-1,-1,-1,-1,-1,-1,-1,-1,-1,-1,-1,-1,-1,-1,-1,-1,-1,-1,-1,-1,-1,-1,-1,-1,-1,-1,-1,-1,-1,-1,-1,-1,-1,-1,-1,-1,-1,-1,-1],"loss_changes":[4.8542075E5,1.9979375E4,4.3695562E4,1.3829688E3,2.824459E3,9.066441E3,1.2136547E4,1.9192188E2,4.8889062E2,3.0341973E3,1.6469023E3,3.2803413E3,2.1524373E4,2.3152031E3,3.3128594E3,1.898916E2,1.7507812E2,3.4284766E2,4.2729883E2,6.674238E2,6.029887E2,2.904253E2,5.156356E2,2.7532056E2,1.8929033E3,0E0,1.7565642E3,1.5616729E3,5.4742773E2,1.6950312E3,1.9630056E3,3.8352823E2,1.5028125E2,6.1296875E1,3.20625E1,1.8170703E2,7.161981E1,1.2804688E2,1.7448657E2,1.1107422E1,4.317422E2,1.9749353E2,4.3463403E2,5.194861E1,2.601294E2,1.3426367E2,4.5794424E2,3.9653687E1,1.9657599E2,1.0811461E3,3.4027637E2,1.3879028E2,1.0384861E3,1.5462773E3,2.1363849E2,3.6445898E2,4.6290955E2,1.0918906E3,2.800357E1,0E0,0E0,0E0,1.1373505E1,1.8560739E2,8.962109E1,1.625E1,6.0446598E1,4.7391357E1,3.178125E1,1.2880469E2,5.7095947E1,2.715348E1,0E0,1.5157227E1,7.739014E1,1.06651855E2,1.328103E2,9.226074E0,0E0,3.6622168E2,8.949014E1,6.0955986E1,1.8406982E1,9.06055E1,4.7818457E2,2.5026741E1,6.5200806E1,2.3703491E2,0E0,4.860682E1,1.1201752E2,2.0095312E2,6.4047424E1,0E0,1.3178833E1,5.3718628E1,9.590573E1,3.3955536E2,1.5068286E2,2.4246484E2,0E0,3.643164E1,1.1606082E2,5.3273914E2,4.0326807E2,3.2764282E2,6.1638965E2,0E0,0E0,7.822998E1,7.948242E1,0E0,0E0,4.7970312E2,2.0254688E2,8.032293E0,0E0,0E0,0E0,0E0,0E0,0E0,0E0,0E0,0E0,0E0,0E0,0E0,0E0,0E0,0E0,0E0,0E0,0E0,0E0,0E0,0E0,0E0,0E0,0E0,0E0,0E0,0E0,0E0,0E0,0E0,0E0,0E0,0E0,0E0,0E0,0E0,0E0,0E0,0E0,0E0,0E0,0E0,0E0,0E0,0E0,0E0,0E0,0E0,0E0,0E0,0E0,0E0,0E0,0E0,0E0,0E0,0E0,0E0,0E0,0E0,0E0,0E0,0E0,0E0,0E0,0E0,0E0,0E0,0E0,0E0,0E0,0E0,0E0,0E0,0E0,0E0,0E0,0E0,0E0,0E0,0E0,0E0,0E0,0E0,0E0,0E0,0E0,0E0,0E0,0E0,0E0],"parents":[2147483647,0,0,1,1,2,2,3,3,4,4,5,5,6,6,7,7,8,8,9,9,10,10,11,11,12,12,13,13,14,14,15,15,16,16,17,17,18,18,19,19,20,20,21,21,22,22,23,23,24,24,26,26,27,27,28,28,29,29,30,30,31,31,32,32,33,33,34,34,35,35,36,36,37,37,38,38,39,39,40,40,41,41,42,42,43,43,44,44,45,45,46,46,47,47,48,48,49,49,50,50,51,51,52,52,53,53,54,54,55,55,56,56,57,57,58,58,62,62,63,63,64,64,65,65,66,66,67,67,68,68,69,69,70,70,71,71,73,73,74,74,75,75,76,76,77,77,79,79,80,80,81,81,82,82,83,83,84,84,85,85,86,86,87,87,89,89,90,90,91,91,92,92,94,94,95,95,96,96,97,97,98,98,99,99,101,101,102,102,103,103,104,104,105,105,106,106,109,109,110,110,113,113,114,114,115,115],"right_children":[2,4,6,8,10,12,14,16,18,20,22,24,26,28,30,32,34,36,38,40,42,44,46,48,50,-1,52,54,56,58,60,62,64,66,68,70,72,74,76,78,80,82,84,86,88,90,92,94,96,98,100,102,104,106,108,110,112,114,116,-1,-1,-1,118,120,122,124,126,128,130,132,134,136,-1,138,140,142,144,146,-1,148,150,152,154,156,158,160,162,164,-1,166,168,170,172,-1,174,176,178,180,182,184,-1,186,188,190,192,194,196,-1,-1,198,200,-1,-1,202,204,206,-1,-1,-1,-1,-1,-1,-1,-1,-1,-1,-1,-1,-1,-1,-1,-1,-1,-1,-1,-1,-1,-1,-1,-1,-1,-1,-1,-1,-1,-1,-1,-1,-1,-1,-1,-1,-1,-1,-1,-1,-1,-1,-1,-1,-1,-1,-1,-1,-1,-1,-1,-1,-1,-1,-1,-1,-1,-1,-1,-1,-1,-1,-1,-1,-1,-1,-1,-1,-1,-1,-1,-1,-1,-1,-1,-1,-1,-1,-1,-1,-1,-1,-1,-1,-1,-1,-1,-1,-1,-1,-1],"split_conditions":[8.124804E-2,2.3591124E-2,5E-1,1.621797E-3,2.6709923E-1,4E0,1.42E2,5.0085515E-21,1.23885775E-5,2.1713533E-4,4.468861E-4,1.4286567E-3,5E0,1.7155245E-3,1E0,-9.8846835E-1,3E0,8E0,3.204093E-11,4.530533E-18,2.881337E-16,2.9830935E-6,3E0,3.970391E-1,1.8461554E-1,-7.735793E-2,2.0532769E-5,1E0,1E0,2.7E1,1E0,-7.4944234E-1,-9.965751E-1,1.5E2,-9.947883E-1,1.31E2,2.967458E1,1.2995337E-2,3E0,1.7432259E-4,1.03E2,2.0594144E-1,3E0,1.7637566E-4,1E0,3.651568E-2,6E0,3.475E6,-7.2791154E-4,6.9485774E-4,1E0,-2.0847712E-2,1.71E2,2.2522119E-1,1E0,1.7827895E-1,1E0,7.17E2,-9.8846835E-1,-7.9125844E-2,7.373072E-2,5.5565577E-2,4.875479E-7,2.8E1,-9.99833E-1,2E0,1.9E1,2E0,5.4570723E-2,3E0,7.56E2,9.762043E-3,-4.8693042E-2,5E0,1.1E1,9.431965E-1,6E0,1.4825656E-5,-3.2933984E-2,3E0,9.5597935E-1,-8.6923283E-1,7E2,1.5206061E-3,6E0,9.776531E-1,9.657866E-1,4.8E1,-7.696334E-2,1.8E1,2.502543E-3,4E0,-9.2883945E-1,-3.2202213E-3,1.132479E1,5.1141555E-8,2.1E1,1.01E2,1E0,6.4242864E-3,-7.302332E-2,1.1049169E-3,1.147444E-3,6E0,1E0,5E0,2.7E1,-7.853132E-2,3.5863515E-2,4.6E1,2.3047934E-1,-7.752137E-2,6.673499E-2,9.9724954E-1,9.9798876E-1,-2.4224059E2,-8.033354E-2,-2.5820345E-2,-7.108346E-2,-5.1827315E-2,5.30727E-2,-1.4744919E-2,-6.839768E-2,-7.5908564E-2,-7.351864E-2,-6.442198E-2,3.6551997E-2,-4.474403E-2,-6.851725E-2,-7.099793E-2,-5.880379E-2,-6.2239807E-2,-6.87053E-2,-5.859704E-2,-2.9739982E-2,4.0604817E-3,5.7996772E-2,-4.975556E-2,-7.4140295E-2,-4.8868656E-2,-7.474999E-2,-2.8603276E-2,-6.287926E-2,-5.785554E-2,-3.328187E-2,-3.6528595E-2,-7.4127354E-2,-3.9757714E-2,-5.487183E-2,2.4467282E-2,-6.574332E-2,4.3160275E-2,-3.0374128E-2,-7.5370006E-2,-2.2349555E-2,-5.1194853E-3,1.064428E-2,-3.369132E-2,3.0449717E-3,-3.6250908E-2,1.630603E-2,-6.747317E-2,-1.1962363E-2,-3.402335E-2,-1.5595591E-2,1.2755598E-2,-6.974379E-2,1.5681999E-2,3.5714142E-2,-1.642241E-3,-3.6564834E-2,-3.135741E-2,2.3713635E-2,-2.7659982E-2,-7.334949E-2,-6.0928877E-2,-2.8839283E-2,2.2511391E-3,-4.2123206E-2,-5.4211677E-3,1.6424421E-2,3.7018385E-2,-3.2038603E-2,2.054235E-2,4.8379835E-2,-7.311882E-2,-7.045849E-3,3.620676E-2,-3.56112E-2,3.865443E-4,2.862607E-2,4.3533996E-2,-7.380275E-2,1.9475834E-2,-1.585815E-2,4.1181996E-2,-7.7836916E-2,3.5104107E-2,4.7135584E-2,5.4327663E-2,6.227046E-2,6.342085E-2,-3.6781777E-3,7.303951E-2,4.4280346E-2,-6.7856056E-3,-4.918826E-2],"split_indices":[107,107,129,91,102,26,19,31,110,110,110,32,26,110,61,42,88,56,30,30,30,32,26,102,107,0,30,61,61,114,67,48,48,77,48,14,31,107,26,110,98,92,26,111,61,31,26,101,110,110,64,110,88,92,67,107,67,88,42,0,0,0,89,0,45,98,0,26,30,26,20,130,0,0,13,45,26,111,0,26,45,45,87,111,26,45,37,88,0,13,111,26,48,0,106,30,0,88,61,30,0,32,89,26,61,114,114,0,0,19,105,0,0,45,45,103,0,0,0,0,0,0,0,0,0,0,0,0,0,0,0,0,0,0,0,0,0,0,0,0,0,0,0,0,0,0,0,0,0,0,0,0,0,0,0,0,0,0,0,0,0,0,0,0,0,0,0,0,0,0,0,0,0,0,0,0,0,0,0,0,0,0,0,0,0,0,0,0,0,0,0,0,0,0,0,0,0,0,0,0,0,0,0,0,0,0,0],"split_type":[0,0,0,0,0,0,0,0,0,0,0,0,0,0,0,0,0,0,0,0,0,0,0,0,0,0,0,0,0,0,0,0,0,0,0,0,0,0,0,0,0,0,0,0,0,0,0,0,0,0,0,0,0,0,0,0,0,0,0,0,0,0,0,0,0,0,0,0,0,0,0,0,0,0,0,0,0,0,0,0,0,0,0,0,0,0,0,0,0,0,0,0,0,0,0,0,0,0,0,0,0,0,0,0,0,0,0,0,0,0,0,0,0,0,0,0,0,0,0,0,0,0,0,0,0,0,0,0,0,0,0,0,0,0,0,0,0,0,0,0,0,0,0,0,0,0,0,0,0,0,0,0,0,0,0,0,0,0,0,0,0,0,0,0,0,0,0,0,0,0,0,0,0,0,0,0,0,0,0,0,0,0,0,0,0,0,0,0,0,0,0,0,0,0,0,0,0,0,0,0,0,0,0,0,0,0,0],"sum_hessian":[2.645547E5,1.1729233E5,1.4726236E5,8.998326E4,2.7309076E4,3.0803355E4,1.1645901E5,6.196191E4,2.8021344E4,1.8030787E4,9.278289E3,1.6292456E4,1.4510899E4,3.5992543E4,8.046646E4,3.867799E3,5.8094113E4,2.2114818E4,5.9065254E3,1.2470302E4,5.5604854E3,5.700742E3,3.5775469E3,1.1541948E3,1.5138261E4,5.70787E3,8.803029E3,2.06132E4,1.5379345E4,7.987905E4,5.874138E2,1.7684297E2,3.690956E3,3.926976E4,1.8824352E4,2.2034705E4,8.0111626E1,2.567173E3,3.3393525E3,1.8022543E3,1.0668048E4,5.6094507E2,4.9995405E3,4.9078583E2,5.2099565E3,1.8707583E3,1.7067886E3,3.415215E2,8.1267334E2,7.6025225E3,7.535739E3,6.049524E2,8.198077E3,2.0356697E4,2.5650122E2,1.5232733E4,1.4661064E2,7.97419E4,1.3714735E2,3.8448746E2,2.0292638E2,6.175968E1,1.1508328E2,1.2711105E2,3.563845E3,3.923766E4,3.210093E1,6.8891235E2,1.813544E4,2.153856E4,4.961447E2,6.2537983E1,1.7573645E1,1.354916E3,1.2122571E3,1.5399333E3,1.7994191E3,1.7828706E3,1.938366E1,1.0491849E4,1.7619972E2,2.1740932E2,3.4353574E2,2.3845703E3,2.6149702E3,9.7951126E1,3.9283472E2,5.072025E3,1.3793138E2,4.6017143E1,1.8247411E3,1.1003663E3,6.064223E2,1.5221401E1,3.263001E2,3.6544482E2,4.4722852E2,4.552892E3,3.0496301E3,7.500024E3,3.5714657E1,2.1940431E2,3.8554807E2,4.2929346E3,3.9051418E3,6.718113E3,1.3638585E4,2.2906532E2,2.7435892E1,3.6870415E3,1.1545692E4,9.293032E1,5.3680325E1,2.8909107E4,5.0832797E4,3.1273352E1,1.0587401E2,1.6384144E1,9.869914E1,9.236665E1,3.47444E1,5.3403805E1,3.5104412E3,2.7930547E4,1.1307112E4,1.6973942E1,1.5126988E1,2.3921138E2,4.4970096E2,1.7664213E4,4.7122644E2,9.442921E3,1.209564E4,1.8503262E2,3.111121E2,2.6212383E1,3.63256E1,7.3795815E1,1.2811202E3,9.607619E2,2.5149515E2,1.375856E3,1.6407736E2,1.2873324E3,5.120867E2,2.1380196E1,1.7614904E3,4.7792456E3,5.712603E3,1.5945834E2,1.6741367E1,1.696049E1,2.0044882E2,3.2839914E2,1.5136599E1,1.378317E3,1.00625323E3,1.7874421E3,8.27528E2,8.2900345E1,1.505078E1,3.528298E2,4.0004917E1,1.6750809E3,3.396944E3,1.5555981E1,3.0461163E1,9.9780115E2,8.2694E2,4.4008102E2,6.602853E2,3.3057373E1,5.733649E2,1.6888706E1,3.094114E2,2.0352116E2,1.6192366E2,3.503598E2,9.6868706E1,2.360931E3,2.1919614E3,3.000683E3,4.8946846E1,5.489086E2,6.951115E3,2.0368329E2,1.5721019E1,3.7421936E1,3.4812613E2,2.2855254E3,2.0074094E3,3.8604312E3,4.4710842E1,6.2709272E3,4.471854E2,1.3571368E4,6.721704E1,1.6434415E3,2.0436E3,8.586517E3,2.9591755E3,2.8738502E4,1.7060374E2,5.0417812E4,4.1498444E2,1.521455E1,1.6058802E1],"tree_param":{"num_deleted":"0","num_feature":"147","num_nodes":"207","size_leaf_vector":"1"}},{"base_weights":[-6.4910282E-3,-1.3823706E0,1.1850344E0,-1.6233451E0,-5.4561925E-1,1.07633576E-1,1.4451908E0,-1.6917963E0,-8.1311625E-1,-1.5141001E0,-3.044596E-1,5.845328E-1,-9.393298E-1,1.0022402E0,1.6493658E0,-1.7801791E0,-1.5640206E0,-1.3123684E0,-4.0041906E-1,-1.6755633E0,-1.0291915E0,-7.4422705E-1,9.0798415E-2,-1.1161059E0,7.7142614E-1,-7.469899E-2,6.108154E-1,8.210563E-1,1.2611761E0,1.6549817E0,-7.290699E-2,-1.4731116E0,-1.7954032E0,-1.6457034E0,-1.4603747E0,-1.4955463E0,-6.2500846E-1,-6.425868E-1,5.347469E-1,-1.6857991E0,3.315149E-2,-1.3392658E0,-6.752141E-1,-4.8920265E-1,-1.3931481E0,-3.48648E-1,6.3098204E-1,-1.5366895E0,-3.7481093E-1,4.3488884E-1,1.0664383E0,-1.1321245E0,8.5304207E-1,5.763308E-1,1.0324461E0,1.2742538E0,-7.401153E-2,1.6618775E0,-7.570046E-2,-1.665355E-1,-1.5425118E0,-1.7964668E0,5.1906854E-3,-1.5761155E0,-7.470228E-2,-1.3869982E0,-1.6023546E0,-1.2468165E0,-1.716174E0,-1.2133608E0,-3.0405617E-1,-1.5022321E0,-4.6304104E-1,1.4080472E-1,8.6303854E-1,-1.7326297E0,-1.3575394E0,-8.844095E-1,-1.5097507E0,-1.4222302E0,-4.7989213E-1,-7.9252714E-1,-7.727157E-2,-4.356881E-1,-1.8721204E0,-6.871099E-1,-4.609454E-2,4.1067806E-1,1.2467606E0,-1.6070614E0,-0E0,-1.4123424E0,-2.3041919E-1,2.272461E-1,7.7963555E-1,1.0925651E0,-6.233362E-1,-5.237337E-1,-1.6903359E0,6.3826793E-1,1.2683434E0,6.214701E-1,-3.2481334E-1,1.0488845E0,-6.954625E-2,9.762881E-1,1.3562496E0,1.6672487E0,-7.692109E-2,6.285917E-2,-6.1648224E-2,-6.4631134E-2,-2.781038E-2,-7.283398E-2,-6.9843635E-2,-6.582885E-2,-5.8534037E-2,-6.2406953E-2,-5.1688924E-2,-6.432777E-2,-5.1019997E-5,-6.418092E-2,-4.2560507E-2,-7.350461E-2,-6.250505E-2,-7.361441E-2,-2.3554023E-2,-1.9948082E-2,2.4520058E-2,-4.394382E-2,-6.487958E-2,-3.4872025E-2,-8.952891E-3,-5.1532123E-2,9.399122E-3,1.2628011E-3,3.861871E-2,-6.2862076E-2,-7.337517E-2,-6.411967E-2,-2.313158E-2,-4.2755175E-2,4.0128995E-3,-6.632809E-2,-3.540898E-2,-6.387781E-2,-4.9425024E-3,-6.349826E-3,-4.1641816E-2,-3.883048E-2,-2.1564875E-2,-7.940359E-3,4.4358525E-2,-5.4752916E-2,-7.849924E-3,-7.507872E-2,-4.0558547E-2,-4.417524E-2,-2.1662178E-2,5.415831E-4,-3.2593794E-2,-4.7640684E-3,1.9339656E-2,-5.418011E-3,5.3617463E-2,-7.217937E-2,-5.4622505E-2,-2.249426E-2,2.6561279E-2,-6.811483E-2,-8.414861E-3,-5.9550345E-2,-6.051982E-3,-1.481439E-3,2.0822627E-2,2.0165557E-2,3.9586388E-2,4.4275753E-2,-7.2472125E-2,1.8533405E-2,-7.803971E-2,-4.8471317E-2,7.013266E-3,-7.078612E-2,-2.3677727E-2,1.3809308E-2,3.8187467E-2,5.204704E-2,6.5032584E-3,9.017195E-3,2.8514838E-2,-2.5830636E-2,2.7453678E-2,-6.052358E-2,4.258981E-2,1.9438054E-2,4.1459713E-2,3.818648E-2,5.5777747E-2,-7.3149785E-2,6.687901E-2],"categories":[],"categories_nodes":[],"categories_segments":[],"categories_sizes":[],"default_left":[0,0,0,0,0,0,0,0,0,0,0,0,0,0,0,0,0,0,0,0,0,0,0,0,0,0,0,0,0,0,0,0,0,0,0,0,0,0,0,0,0,0,0,0,0,0,0,0,0,0,0,0,0,0,0,0,0,0,0,0,0,0,0,0,0,0,0,0,0,0,0,0,0,0,0,0,0,0,0,0,0,0,0,0,0,0,0,0,0,0,0,0,0,0,0,0,0,0,0,0,0,0,0,0,0,0,0,0,0,0,0,0,0,0,0,0,0,0,0,0,0,0,0,0,0,0,0,0,0,0,0,0,0,0,0,0,0,0,0,0,0,0,0,0,0,0,0,0,0,0,0,0,0,0,0,0,0,0,0,0,0,0,0,0,0,0,0,0,0,0,0,0,0,0,0,0,0,0,0,0,0,0,0,0,0,0,0,0,0,0,0,0,0,0,0,0,0,0,0,0,0],"id":2,"left_children":[1,3,5,7,9,11,13,15,17,19,21,23,25,27,29,31,33,35,37,39,41,43,45,47,49,-1,51,53,55,57,-1,59,61,63,65,67,69,71,73,75,-1,77,79,81,83,85,87,89,91,93,95,97,99,101,103,105,-1,107,-1,109,111,113,-1,115,-1,117,119,121,123,125,127,129,131,133,135,137,139,141,143,145,147,149,151,153,155,157,159,161,163,165,167,169,171,173,175,177,179,181,183,185,187,189,191,193,-1,195,197,199,-1,-1,-1,-1,-1,-1,-1,-1,-1,-1,-1,-1,-1,-1,-1,-1,-1,-1,-1,-1,-1,-1,-1,-1,-1,-1,-1,-1,-1,-1,-1,-1,-1,-1,-1,-1,-1,-1,-1,-1,-1,-1,-1,-1,-1,-1,-1,-1,-1,-1,-1,-1,-1,-1,-1,-1,-1,-1,-1,-1,-1,-1,-1,-1,-1,-1,-1,-1,-1,-1,-1,-1,-1,-1,-1,-1,-1,-1,-1,-1,-1,-1,-1,-1,-1,-1,-1,-1,-1,-1,-1,-1,-1],"loss_changes":[4.3054625E5,2.4572375E4,3.9447516E4,5.2428594E3,6.3639546E3,1.3671173E4,1.02465E4,9.753281E2,1.5177622E3,4.188545E2,3.7946343E3,5.981608E3,1.2332593E4,1.6743164E3,1.5219688E3,2.314375E2,2.935078E2,4.163047E2,9.169364E2,1.0895801E2,1.461803E2,1.7070254E3,2.7301223E3,5.783533E2,1.6808428E3,0E0,1.358478E3,1.0868066E3,6.0581836E2,1.9044219E3,0E0,2.2084912E2,1.02078125E2,2.9729688E2,1.5608203E2,1.3654346E2,1.3181192E2,4.930033E2,1.0686975E2,5.37334E1,0E0,5.095642E1,9.104202E1,9.268729E2,1.3322925E3,6.489138E2,6.9752686E2,1.2897388E2,9.992509E1,5.6621875E2,4.0094238E2,1.2965686E2,2.4826904E2,3.980652E2,5.1958203E2,3.5307422E2,0E0,1.4982812E3,0E0,3.1180966E2,1.4004834E2,4.8953125E1,0E0,1.1053516E2,0E0,1.6352148E2,4.9208984E1,7.523718E1,1.5526855E1,9.276648E1,8.34344E1,2.0048462E1,2.5931653E2,5.1918907E1,3.7999786E1,4.761133E1,9.5866455E1,3.813208E1,4.2694458E1,2.8392181E1,9.1891E1,1.9071436E2,4.5350565E2,2.1638655E2,9.169922E-1,1.7910999E2,1.5411589E2,1.4712756E2,1.768982E2,4.5176025E1,2.161615E1,2.6584137E1,5.82461E1,3.8407336E2,1.699851E2,3.7580176E2,2.0415887E2,9.386995E1,1.3371277E1,1.7142218E2,3.3409058E1,3.3580713E2,1.5298526E2,4.609082E2,0E0,9.148584E1,1.7105078E2,1.2849062E3,0E0,0E0,0E0,0E0,0E0,0E0,0E0,0E0,0E0,0E0,0E0,0E0,0E0,0E0,0E0,0E0,0E0,0E0,0E0,0E0,0E0,0E0,0E0,0E0,0E0,0E0,0E0,0E0,0E0,0E0,0E0,0E0,0E0,0E0,0E0,0E0,0E0,0E0,0E0,0E0,0E0,0E0,0E0,0E0,0E0,0E0,0E0,0E0,0E0,0E0,0E0,0E0,0E0,0E0,0E0,0E0,0E0,0E0,0E0,0E0,0E0,0E0,0E0,0E0,0E0,0E0,0E0,0E0,0E0,0E0,0E0,0E0,0E0,0E0,0E0,0E0,0E0,0E0,0E0,0E0,0E0,0E0,0E0,0E0,0E0,0E0,0E0,0E0,0E0,0E0,0E0,0E0,0E0],"parents":[2147483647,0,0,1,1,2,2,3,3,4,4,5,5,6,6,7,7,8,8,9,9,10,10,11,11,12,12,13,13,14,14,15,15,16,16,17,17,18,18,19,19,20,20,21,21,22,22,23,23,24,24,26,26,27,27,28,28,29,29,31,31,32,32,33,33,34,34,35,35,36,36,37,37,38,38,39,39,41,41,42,42,43,43,44,44,45,45,46,46,47,47,48,48,49,49,50,50,51,51,52,52,53,53,54,54,55,55,57,57,59,59,60,60,61,61,63,63,65,65,66,66,67,67,68,68,69,69,70,70,71,71,72,72,73,73,74,74,75,75,76,76,77,77,78,78,79,79,80,80,81,81,82,82,83,83,84,84,85,85,86,86,87,87,88,88,89,89,90,90,91,91,92,92,93,93,94,94,95,95,96,96,97,97,98,98,99,99,100,100,101,101,102,102,103,103,105,105,106,106,107,107],"right_children":[2,4,6,8,10,12,14,16,18,20,22,24,26,28,30,32,34,36,38,40,42,44,46,48,50,-1,52,54,56,58,-1,60,62,64,66,68,70,72,74,76,-1,78,80,82,84,86,88,90,92,94,96,98,100,102,104,106,-1,108,-1,110,112,114,-1,116,-1,118,120,122,124,126,128,130,132,134,136,138,140,142,144,146,148,150,152,154,156,158,160,162,164,166,168,170,172,174,176,178,180,182,184,186,188,190,192,194,-1,196,198,200,-1,-1,-1,-1,-1,-1,-1,-1,-1,-1,-1,-1,-1,-1,-1,-1,-1,-1,-1,-1,-1,-1,-1,-1,-1,-1,-1,-1,-1,-1,-1,-1,-1,-1,-1,-1,-1,-1,-1,-1,-1,-1,-1,-1,-1,-1,-1,-1,-1,-1,-1,-1,-1,-1,-1,-1,-1,-1,-1,-1,-1,-1,-1,-1,-1,-1,-1,-1,-1,-1,-1,-1,-1,-1,-1,-1,-1,-1,-1,-1,-1,-1,-1,-1,-1,-1,-1,-1,-1,-1,-1,-1,-1],"split_conditions":[5.942275E-3,1.8521376E-3,2.5E-1,5.313719E-5,9.438694E-6,7.818315E-1,1.54E2,3.086896E-4,-3.6442478E-5,1.3954483E-2,1.4524547E-5,1.1679749E-2,-2.2252093E-1,1.9542652E-3,1E0,9.132823E-24,6.234898E-1,1.5175577E-1,1.5175577E-1,9.429703E-1,-1.4807451E-4,7.818315E-1,2.6439206E-4,1.290985E-1,1.3196481E-2,-7.469899E-2,1.4557202E-2,1.4894274E-2,1E0,9E-1,-7.290699E-2,-9.8846835E-1,3.61E2,7.818315E-1,3.953118E-1,2.53297E-4,-2.2252093E-1,6.624245E-2,1.9542652E-3,2.7575544E-1,3.315149E-2,3.2961566E-4,2.6422357E-2,3.4425896E-1,2E0,3.2003725E-1,1.1339643E-2,7.253386E-1,-1.2979038E-1,7.991831E-4,9.9798876E-1,6.86E3,1.9542652E-3,9.8112464E-1,9E-1,1.8461554E-1,-7.401153E-2,1E0,-7.570046E-2,-9.8853123E-1,4.07044E-1,1.1316066E0,5.1906854E-3,2.6E1,-7.470228E-2,5.8365144E-6,6.4836524E-2,-2.2252093E-1,0E0,0E0,9.5998716E-1,1.0851493E-4,2.6439206E-4,-7.818315E-1,5.6793645E-4,1.9E1,-8.6159234E-5,4.40896E-1,7.8125656E-1,2.9830935E-6,4.3388373E-1,3.2857144E0,1.671164E-1,1.8E1,2.2664285E2,1.1E1,9.698432E-1,4.029545E-2,5.4943133E-2,8.124804E-2,7.907757E-1,3.6054394E-1,1.0609E-2,4.0329082E-4,-2.4917957E-5,1E0,8.649E-3,-3.7980886E-4,9.8846835E-1,1.4285715E-1,9.67711E-1,-3.049624E-4,2.10681E-1,5E0,-6.954625E-2,-2.2335853E-3,-7.818315E-1,4E0,-7.692109E-2,6.285917E-2,-6.1648224E-2,-6.4631134E-2,-2.781038E-2,-7.283398E-2,-6.9843635E-2,-6.582885E-2,-5.8534037E-2,-6.2406953E-2,-5.1688924E-2,-6.432777E-2,-5.1019997E-5,-6.418092E-2,-4.2560507E-2,-7.350461E-2,-6.250505E-2,-7.361441E-2,-2.3554023E-2,-1.9948082E-2,2.4520058E-2,-4.394382E-2,-6.487958E-2,-3.4872025E-2,-8.952891E-3,-5.1532123E-2,9.399122E-3,1.2628011E-3,3.861871E-2,-6.2862076E-2,-7.337517E-2,-6.411967E-2,-2.313158E-2,-4.2755175E-2,4.0128995E-3,-6.632809E-2,-3.540898E-2,-6.387781E-2,-4.9425024E-3,-6.349826E-3,-4.1641816E-2,-3.883048E-2,-2.1564875E-2,-7.940359E-3,4.4358525E-2,-5.4752916E-2,-7.849924E-3,-7.507872E-2,-4.0558547E-2,-4.417524E-2,-2.1662178E-2,5.415831E-4,-3.2593794E-2,-4.7640684E-3,1.9339656E-2,-5.418011E-3,5.3617463E-2,-7.217937E-2,-5.4622505E-2,-2.249426E-2,2.6561279E-2,-6.811483E-2,-8.414861E-3,-5.9550345E-2,-6.051982E-3,-1.481439E-3,2.0822627E-2,2.0165557E-2,3.9586388E-2,4.4275753E-2,-7.2472125E-2,1.8533405E-2,-7.803971E-2,-4.8471317E-2,7.013266E-3,-7.078612E-2,-2.3677727E-2,1.3809308E-2,3.8187467E-2,5.204704E-2,6.5032584E-3,9.017195E-3,2.8514838E-2,-2.5830636E-2,2.7453678E-2,-6.052358E-2,4.258981E-2,1.9438054E-2,4.1459713E-2,3.818648E-2,5.5777747E-2,-7.3149785E-2,6.687901E-2],"split_indices":[90,90,129,110,32,44,19,90,108,31,108,29,35,110,71,29,35,102,102,102,110,44,110,140,90,0,29,90,71,117,0,42,84,44,45,109,35,102,110,102,0,109,107,102,26,102,105,102,110,110,45,20,110,45,117,107,0,63,0,47,5,99,0,9,0,29,108,35,43,43,39,109,110,43,109,13,110,5,47,32,44,124,107,146,124,13,45,107,107,107,41,105,5,108,108,71,5,110,41,60,47,108,5,7,0,108,43,7,0,0,0,0,0,0,0,0,0,0,0,0,0,0,0,0,0,0,0,0,0,0,0,0,0,0,0,0,0,0,0,0,0,0,0,0,0,0,0,0,0,0,0,0,0,0,0,0,0,0,0,0,0,0,0,0,0,0,0,0,0,0,0,0,0,0,0,0,0,0,0,0,0,0,0,0,0,0,0,0,0,0,0,0,0,0,0,0,0,0,0,0,0],"split_type":[0,0,0,0,0,0,0,0,0,0,0,0,0,0,0,0,0,0,0,0,0,0,0,0,0,0,0,0,0,0,0,0,0,0,0,0,0,0,0,0,0,0,0,0,0,0,0,0,0,0,0,0,0,0,0,0,0,0,0,0,0,0,0,0,0,0,0,0,0,0,0,0,0,0,0,0,0,0,0,0,0,0,0,0,0,0,0,0,0,0,0,0,0,0,0,0,0,0,0,0,0,0,0,0,0,0,0,0,0,0,0,0,0,0,0,0,0,0,0,0,0,0,0,0,0,0,0,0,0,0,0,0,0,0,0,0,0,0,0,0,0,0,0,0,0,0,0,0,0,0,0,0,0,0,0,0,0,0,0,0,0,0,0,0,0,0,0,0,0,0,0,0,0,0,0,0,0,0,0,0,0,0,0,0,0,0,0,0,0,0,0,0,0,0,0,0,0,0,0,0,0],"sum_hessian":[2.6261897E5,1.21880695E5,1.4073828E5,9.462608E4,2.7254615E4,2.7374955E4,1.1336332E5,8.7250914E4,7.3751587E3,5.4300386E3,2.1824576E4,1.8809086E4,8.565869E3,3.5773695E4,7.7589625E4,5.1550516E4,3.5700402E4,3.334076E3,4.0410828E3,4.0673184E3,1.3627202E3,1.0329975E4,1.1494602E4,1.8606335E3,1.6948453E4,5.357681E3,3.2081877E3,2.1055256E4,1.471844E4,7.746604E4,1.2358696E2,2.4504917E3,4.9100023E4,1.9937953E4,1.5762449E4,2.6291626E3,7.049132E2,3.211036E3,8.30047E2,4.0519375E3,1.538084E1,7.212033E2,6.4151697E2,7.419974E3,2.9100007E3,6.338383E3,5.1562188E3,1.1846265E3,6.7600714E2,7.921295E3,9.027157E3,3.8986093E2,2.818327E3,9.764485E3,1.1290771E4,1.465876E4,5.9680138E1,7.731748E4,1.4855719E2,1.24473335E2,2.3260183E3,4.907337E4,2.6652063E1,1.5197555E4,4.740399E3,1.041547E4,5.3469795E3,1.2463175E3,1.3828452E3,2.4531528E2,4.5959796E2,5.5048584E2,2.6605498E3,3.79939E2,4.50108E2,3.5334822E3,5.184554E2,2.0247977E2,5.187235E2,1.285331E2,5.129839E2,4.2710273E3,3.1489468E3,9.72586E2,1.9374147E3,2.9890798E3,3.3493032E3,3.8018594E3,1.3543594E3,1.1328322E3,5.1794304E1,7.894422E1,5.970629E2,4.947698E3,2.9735967E3,8.891043E3,1.361138E2,1.8975671E2,2.001042E2,1.8634525E3,9.548744E2,9.300119E3,4.643669E2,1.1226222E4,6.454948E1,3.1730317E3,1.1485729E4,7.7203555E4,1.13928314E2,5.462145E1,6.985189E1,2.1378367E3,1.8818167E2,3.299026E4,1.6083109E4,9.369095E3,5.82846E3,3.665715E3,6.749755E3,5.327224E3,1.9755728E1,4.1269614E2,8.3362134E2,7.5195996E2,6.3088525E2,1.19099625E2,1.2621566E2,3.807066E2,7.889135E1,1.3389491E2,4.1659097E2,9.785136E2,1.6820364E3,2.0808847E1,3.5913016E2,5.033337E1,3.9977463E2,1.3889375E3,2.1445447E3,3.9136746E2,1.2708792E2,1.7074542E2,3.1734344E1,4.144432E2,1.0428033E2,1.1234485E2,1.6188251E1,3.2927844E2,1.8370544E2,2.5012703E3,1.7697572E3,2.8596045E3,2.8934232E2,1.9528632E2,7.772997E2,1.922411E3,1.500364E1,7.67022E2,2.2220579E3,3.1103232E3,2.3897977E2,4.583312E2,3.3435283E3,8.5538864E1,1.2688206E3,6.114724E2,5.213597E2,2.8016687E1,2.3777615E1,6.2235176E1,1.6709045E1,3.178451E1,5.652784E2,2.6031587E3,2.3445396E3,1.2917462E3,1.6818505E3,8.849413E3,4.163032E1,7.571687E1,6.0396935E1,9.488343E1,9.487329E1,1.8449301E2,1.5611197E1,9.7155206E2,8.919004E2,9.2638556E2,2.8488832E1,1.7468561E3,7.5532627E3,3.536825E2,1.1068442E2,6.713586E1,1.1159086E4,3.5087268E2,2.8221592E3,1.0054226E3,1.0480306E4,1.0253448E2,7.7101016E4],"tree_param":{"num_deleted":"0","num_feature":"147","num_nodes":"201","size_leaf_vector":"1"}},{"base_weights":[-2.424014E-3,-1.4143789E0,1.1136695E0,-1.5690187E0,-6.443783E-1,1.2859465E-1,1.3829262E0,-1.648742E0,-1.1613847E0,-1.3073087E0,-3.2468447E-1,5.531171E-1,-8.5213214E-1,9.520069E-1,1.5999393E0,-1.7089387E0,-1.5055685E0,-1.6556184E0,-1.0267459E0,-1.5499567E0,-1.0042437E0,-7.272413E-1,8.9942076E-4,-7.608673E-1,6.834515E-1,5.781517E-1,-7.207959E-2,5.5064434E-1,1.0923501E0,1.6050644E0,-7.410599E-2,-1.7099586E0,-9.131951E-2,-1.4160299E0,-1.6231964E0,-1.4107943E0,-1.7352165E0,-7.4735844E-1,-1.3180846E0,-1.1967027E0,-1.6446594E0,-1.2411783E0,-6.131232E-1,-7.5662786E-1,9.78693E-1,5.8696084E-2,-8.7286353E-1,-3.196067E-1,-1.371374E0,3.41709E-1,1.0023848E0,-9.03064E-1,7.457809E-1,2.7535373E-1,7.197124E-1,1.1007025E0,-6.97382E-2,1.611808E0,-1.7070804E0,-1.418935E0,-1.7235287E0,6.585467E-2,-6.400488E-2,-1.4367673E0,-7.6436424E-1,-1.4375103E0,-1.7068892E0,-6.1492343E-3,-1.4446119E0,-9.014103E-1,-1.745193E0,-9.111085E-1,-2.6278356E-1,-7.2806E-2,-9.765432E-1,-1.3119717E0,-2.5261572E-1,-1.0457506E0,-1.6849475E0,-6.799205E-2,-1.131488E0,-1.2751975E0,-5.1682925E-1,-8.634861E-1,-5.298211E-1,4.7215876E-1,5.3344745E-2,3.3462965E-1,-6.415138E-2,-1.2541021E0,-4.468289E-1,-1.6308064E0,-2.0870249E-1,-1.4672549E0,-3.407204E-1,1.1771057E-1,6.14011E-1,1.0167124E0,-7.749508E-2,-1.0664406E0,7.504868E-1,4.3296784E-1,1.0859492E0,-3.83167E-1,3.3688635E-1,7.598261E-1,-1.6742325E-1,1.108517E0,-7.282654E-2,1.448677E0,1.6838775E0,-1.3299219E-2,-7.4999094E-2,-5.958507E-2,-2.5234517E-2,-6.9975644E-2,-6.60265E-2,-5.528442E-2,-6.421036E-2,-5.0773744E-2,-1.52755985E-2,-6.385555E-2,-5.106516E-2,-6.868648E-2,-2.8896295E-2,-6.2059555E-2,-4.175322E-2,-1.8465685E-2,-4.47742E-2,-5.262803E-2,-7.059778E-2,-4.497983E-2,-2.941745E-2,-1.2557935E-2,4.4690173E-2,-4.2879514E-2,-8.131278E-3,-5.4152768E-2,2.0141564E-3,4.3001633E-2,-2.6053065E-2,-0E0,-4.8218276E-2,-6.8545595E-2,-3.0312046E-2,-3.7898693E-2,-5.7238743E-2,-1.1409682E-2,-5.6914534E-2,-2.354371E-2,3.6043657E-3,-4.400734E-2,-2.9072022E-2,-2.7487561E-2,-7.047398E-3,-6.9480715E-3,3.3138297E-2,-3.4151345E-3,2.052129E-2,-9.927251E-4,-5.064632E-2,-4.1540757E-2,-7.398131E-2,-1.0123994E-2,-6.050465E-2,-2.545448E-2,-7.254691E-2,-2.7111532E-2,-1.8165912E-3,-1.0806893E-2,-6.2247694E-2,3.0639159E-2,-3.9553206E-2,5.891131E-4,2.1090774E-2,2.6470425E-2,-2.9770106E-3,3.6020406E-2,5.110509E-2,-2.9953042E-2,-6.1410435E-2,5.3339634E-2,3.985602E-3,-4.3622893E-3,2.2231197E-2,2.9440645E-2,4.9862456E-2,-4.4043142E-2,-1.0169415E-3,9.683881E-3,2.6206536E-2,2.4414266E-2,3.8284775E-2,-6.8930686E-2,1.3620061E-3,3.746271E-2,4.875246E-2,4.9891423E-2,6.083248E-2,6.747755E-2,-6.7020945E-2],"categories":[],"categories_nodes":[],"categories_segments":[],"categories_sizes":[],"default_left":[0,0,0,0,0,0,0,0,0,0,0,0,0,0,0,0,0,0,0,0,0,0,0,0,0,0,0,0,0,0,0,0,0,0,0,0,0,0,0,0,0,0,0,0,0,0,0,0,0,0,0,0,0,0,0,0,0,0,0,0,0,0,0,0,0,0,0,0,0,0,0,0,0,0,0,0,0,0,0,0,0,0,0,0,0,0,0,0,0,0,0,0,0,0,0,0,0,0,0,0,0,0,0,0,0,0,0,0,0,0,0,0,0,0,0,0,0,0,0,0,0,0,0,0,0,0,0,0,0,0,0,0,0,0,0,0,0,0,0,0,0,0,0,0,0,0,0,0,0,0,0,0,0,0,0,0,0,0,0,0,0,0,0,0,0,0,0,0,0,0,0,0,0,0,0,0,0,0,0,0,0,0,0,0,0,0,0,0,0,0,0,0,0,0,0,0,0,0,0,0,0],"id":3,"left_children":[1,3,5,7,9,11,13,15,17,19,21,23,25,27,29,31,33,35,37,39,41,43,45,47,49,51,-1,53,55,57,-1,59,61,63,65,67,69,71,73,75,77,79,81,83,85,87,89,91,93,95,97,99,101,103,105,107,-1,109,111,113,115,-1,-1,117,119,121,123,-1,125,127,129,131,133,-1,135,137,139,141,143,-1,145,147,149,151,153,155,-1,157,159,161,163,165,167,169,171,173,175,177,-1,179,181,183,185,187,189,191,193,195,-1,197,199,-1,-1,-1,-1,-1,-1,-1,-1,-1,-1,-1,-1,-1,-1,-1,-1,-1,-1,-1,-1,-1,-1,-1,-1,-1,-1,-1,-1,-1,-1,-1,-1,-1,-1,-1,-1,-1,-1,-1,-1,-1,-1,-1,-1,-1,-1,-1,-1,-1,-1,-1,-1,-1,-1,-1,-1,-1,-1,-1,-1,-1,-1,-1,-1,-1,-1,-1,-1,-1,-1,-1,-1,-1,-1,-1,-1,-1,-1,-1,-1,-1,-1,-1,-1,-1,-1,-1,-1,-1,-1],"loss_changes":[4.1253116E5,1.3757297E4,3.877853E4,3.1204531E3,4.0954985E3,1.3069721E4,1.0731719E4,6.843906E2,1.0419082E3,4.5652148E2,1.710564E3,3.7535195E3,1.2887463E4,2.1640898E3,1.3599531E3,9.20625E1,2.4280078E2,5.670215E1,1.00452637E3,1.0929883E2,2.567964E2,2.9463794E2,3.641679E2,5.307212E2,2.1709082E3,9.4214294E2,0E0,4.6305737E2,6.803828E2,1.71125E3,0E0,2.14625E2,1.1056671E2,1.7897656E2,1.5091797E2,3.44032E1,1.4973633E1,5.0118286E2,1.0325107E3,7.974646E1,5.9460938E1,8.0525635E1,6.503653E1,1.3700684E2,1.5156685E1,2.2974887E2,7.012985E1,1.6566498E2,7.946887E1,5.866758E2,4.396416E2,1.06842865E2,3.60005E2,1.5435388E2,2.204314E2,6.543711E2,0E0,8.857344E2,3.3082977E1,1.3764795E2,9.153125E1,0E0,0E0,1.1291797E2,7.992708E1,7.466846E1,6.6583984E1,0E0,2.9006958E1,1.1738834E0,1.2640625E1,1.7394287E2,1.1393936E2,0E0,2.654319E2,3.8849243E1,4.72543E1,3.0338943E1,6.3012207E1,0E0,7.2828E1,1.7304642E1,4.1161087E1,1.2268213E2,1.019928E2,1.1426811E1,0E0,1.5678847E2,2.2085469E2,2.2807281E1,4.268058E1,1.1514206E1,8.123482E1,7.838159E1,5.6082428E1,2.2270741E2,1.4323083E2,3.065498E2,0E0,4.7945923E1,1.2619356E1,1.188186E2,8.7742065E1,8.294151E1,1.0399902E2,1.7172095E2,8.536229E1,5.3298047E2,0E0,3.32E2,5.51E2,0E0,0E0,0E0,0E0,0E0,0E0,0E0,0E0,0E0,0E0,0E0,0E0,0E0,0E0,0E0,0E0,0E0,0E0,0E0,0E0,0E0,0E0,0E0,0E0,0E0,0E0,0E0,0E0,0E0,0E0,0E0,0E0,0E0,0E0,0E0,0E0,0E0,0E0,0E0,0E0,0E0,0E0,0E0,0E0,0E0,0E0,0E0,0E0,0E0,0E0,0E0,0E0,0E0,0E0,0E0,0E0,0E0,0E0,0E0,0E0,0E0,0E0,0E0,0E0,0E0,0E0,0E0,0E0,0E0,0E0,0E0,0E0,0E0,0E0,0E0,0E0,0E0,0E0,0E0,0E0,0E0,0E0,0E0,0E0,0E0,0E0,0E0,0E0,0E0,0E0],"parents":[2147483647,0,0,1,1,2,2,3,3,4,4,5,5,6,6,7,7,8,8,9,9,10,10,11,11,12,12,13,13,14,14,15,15,16,16,17,17,18,18,19,19,20,20,21,21,22,22,23,23,24,24,25,25,27,27,28,28,29,29,31,31,32,32,33,33,34,34,35,35,36,36,37,37,38,38,39,39,40,40,41,41,42,42,43,43,44,44,45,45,46,46,47,47,48,48,49,49,50,50,51,51,52,52,53,53,54,54,55,55,57,57,58,58,59,59,60,60,63,63,64,64,65,65,66,66,68,68,69,69,70,70,71,71,72,72,74,74,75,75,76,76,77,77,78,78,80,80,81,81,82,82,83,83,84,84,85,85,87,87,88,88,89,89,90,90,91,91,92,92,93,93,94,94,95,95,96,96,97,97,99,99,100,100,101,101,102,102,103,103,104,104,105,105,106,106,107,107,109,109,110,110],"right_children":[2,4,6,8,10,12,14,16,18,20,22,24,26,28,30,32,34,36,38,40,42,44,46,48,50,52,-1,54,56,58,-1,60,62,64,66,68,70,72,74,76,78,80,82,84,86,88,90,92,94,96,98,100,102,104,106,108,-1,110,112,114,116,-1,-1,118,120,122,124,-1,126,128,130,132,134,-1,136,138,140,142,144,-1,146,148,150,152,154,156,-1,158,160,162,164,166,168,170,172,174,176,178,-1,180,182,184,186,188,190,192,194,196,-1,198,200,-1,-1,-1,-1,-1,-1,-1,-1,-1,-1,-1,-1,-1,-1,-1,-1,-1,-1,-1,-1,-1,-1,-1,-1,-1,-1,-1,-1,-1,-1,-1,-1,-1,-1,-1,-1,-1,-1,-1,-1,-1,-1,-1,-1,-1,-1,-1,-1,-1,-1,-1,-1,-1,-1,-1,-1,-1,-1,-1,-1,-1,-1,-1,-1,-1,-1,-1,-1,-1,-1,-1,-1,-1,-1,-1,-1,-1,-1,-1,-1,-1,-1,-1,-1,-1,-1,-1,-1,-1,-1],"split_conditions":[7.840978E-2,1.4524547E-5,7.5E-1,1.7E1,4.061668E-1,7.818315E-1,1.57E2,3.8586202E-4,2.4408264E-12,1.4302572E-16,3.756876E-2,1.5632937E-2,2E0,7.253386E-1,1E0,3.61E2,4.3388373E-1,1.58E2,4E0,2.3E2,1.2601589E-1,4E0,1.3333334E-1,7.8E1,1.55E2,1.8792367E-2,-7.207959E-2,3.2E1,9E-1,9E-1,-7.410599E-2,9.132823E-24,5.2373066E1,1.4533025E1,2E0,1.0346037E-7,1.1927559E1,4.7E1,5E0,9.4461656E-1,3.662547E-20,1.16E2,1.21E2,7.5688386E0,2.6050642E-1,4.8159175E0,7.0391893E-1,1.03E2,6.01E2,3.401572E-4,9E-1,9.7876906E-1,1.4285715E-1,-7.818315E-1,3.6666667E-1,1E0,-6.97382E-2,6.63E2,2E0,4.8E1,3E0,6.585467E-2,-6.400488E-2,3.39E2,1.0751308E-2,8E0,4.029545E-2,-6.1492343E-3,2.5709546E2,-2.9936314E-1,2.9E1,3.1440284E-2,2.18E2,-7.2806E-2,3.8552376E1,2.24E2,6E-5,1.28E-5,5.1E1,-6.799205E-2,3.595666E-4,3E0,5.981333E1,2.1029871E-2,2.9449701E-2,1.5142778E-1,5.3344745E-2,1.5E1,9.959246E-1,6.513725E-1,2.3E1,1E1,-7.161397E-4,-9.9039733E-1,-3.4437644E-1,3.6747993E1,1E0,3.4138253E-1,-7.749508E-2,1.34E2,9.4028366E1,7.1428575E-2,2.050738E-1,2.9E1,2.1428572E-1,2.2994112E2,4E0,2.04E2,-7.282654E-2,3.0019574E-3,1E0,-1.3299219E-2,-7.4999094E-2,-5.958507E-2,-2.5234517E-2,-6.9975644E-2,-6.60265E-2,-5.528442E-2,-6.421036E-2,-5.0773744E-2,-1.52755985E-2,-6.385555E-2,-5.106516E-2,-6.868648E-2,-2.8896295E-2,-6.2059555E-2,-4.175322E-2,-1.8465685E-2,-4.47742E-2,-5.262803E-2,-7.059778E-2,-4.497983E-2,-2.941745E-2,-1.2557935E-2,4.4690173E-2,-4.2879514E-2,-8.131278E-3,-5.4152768E-2,2.0141564E-3,4.3001633E-2,-2.6053065E-2,-0E0,-4.8218276E-2,-6.8545595E-2,-3.0312046E-2,-3.7898693E-2,-5.7238743E-2,-1.1409682E-2,-5.6914534E-2,-2.354371E-2,3.6043657E-3,-4.400734E-2,-2.9072022E-2,-2.7487561E-2,-7.047398E-3,-6.9480715E-3,3.3138297E-2,-3.4151345E-3,2.052129E-2,-9.927251E-4,-5.064632E-2,-4.1540757E-2,-7.398131E-2,-1.0123994E-2,-6.050465E-2,-2.545448E-2,-7.254691E-2,-2.7111532E-2,-1.8165912E-3,-1.0806893E-2,-6.2247694E-2,3.0639159E-2,-3.9553206E-2,5.891131E-4,2.1090774E-2,2.6470425E-2,-2.9770106E-3,3.6020406E-2,5.110509E-2,-2.9953042E-2,-6.1410435E-2,5.3339634E-2,3.985602E-3,-4.3622893E-3,2.2231197E-2,2.9440645E-2,4.9862456E-2,-4.4043142E-2,-1.0169415E-3,9.683881E-3,2.6206536E-2,2.4414266E-2,3.8284775E-2,-6.8930686E-2,1.3620061E-3,3.746271E-2,4.875246E-2,4.9891423E-2,6.083248E-2,6.747755E-2,-6.7020945E-2],"split_indices":[107,108,129,88,140,44,19,90,30,30,107,29,26,102,52,84,44,6,26,6,102,56,117,6,88,32,0,13,117,117,0,29,140,32,26,29,99,88,26,46,29,4,4,137,101,100,32,4,4,108,117,38,50,43,117,63,0,88,6,146,88,0,0,6,46,88,107,0,99,41,11,107,88,0,141,6,145,145,146,0,89,13,112,107,107,33,0,13,40,41,9,11,108,46,40,32,72,107,0,6,99,22,107,146,22,96,9,88,0,108,53,0,0,0,0,0,0,0,0,0,0,0,0,0,0,0,0,0,0,0,0,0,0,0,0,0,0,0,0,0,0,0,0,0,0,0,0,0,0,0,0,0,0,0,0,0,0,0,0,0,0,0,0,0,0,0,0,0,0,0,0,0,0,0,0,0,0,0,0,0,0,0,0,0,0,0,0,0,0,0,0,0,0,0,0,0,0,0,0,0,0],"split_type":[0,0,0,0,0,0,0,0,0,0,0,0,0,0,0,0,0,0,0,0,0,0,0,0,0,0,0,0,0,0,0,0,0,0,0,0,0,0,0,0,0,0,0,0,0,0,0,0,0,0,0,0,0,0,0,0,0,0,0,0,0,0,0,0,0,0,0,0,0,0,0,0,0,0,0,0,0,0,0,0,0,0,0,0,0,0,0,0,0,0,0,0,0,0,0,0,0,0,0,0,0,0,0,0,0,0,0,0,0,0,0,0,0,0,0,0,0,0,0,0,0,0,0,0,0,0,0,0,0,0,0,0,0,0,0,0,0,0,0,0,0,0,0,0,0,0,0,0,0,0,0,0,0,0,0,0,0,0,0,0,0,0,0,0,0,0,0,0,0,0,0,0,0,0,0,0,0,0,0,0,0,0,0,0,0,0,0,0,0,0,0,0,0,0,0,0,0,0,0,0,0],"sum_hessian":[2.6177325E5,1.155686E5,1.4620464E5,9.623741E4,1.93312E4,3.1385865E4,1.1481877E5,8.048597E4,1.57514375E4,6.2858237E3,1.3045376E4,2.190554E4,9.480326E3,3.8462637E4,7.635614E4,5.6636883E4,2.3849082E4,3.364261E3,1.2387176E4,3.4830984E3,2.802725E3,5.832196E3,7.21318E3,1.9750862E3,1.9930453E4,3.7836301E3,5.696696E3,9.96952E3,2.8493117E4,7.624471E4,1.1142724E2,5.660072E4,3.6166096E1,1.3565986E4,1.0283096E4,8.407556E2,2.5235054E3,6.3296206E3,6.0575557E3,7.461277E2,2.7369707E3,1.7405372E3,1.0621879E3,5.7353604E3,9.68354E1,6.7688154E3,4.4436508E2,1.1495829E3,8.2550336E2,9.624942E3,1.0305511E4,3.8301993E2,3.4006104E3,3.7972935E3,6.1722256E3,2.841145E4,8.166911E1,7.609148E4,1.5323169E2,2.5374182E3,5.40633E4,1.6527025E1,1.963907E1,1.3143355E4,4.2263052E2,3.2136313E3,7.069465E3,2.2848734E1,8.179069E2,3.3669594E1,2.489836E3,4.7281777E3,1.6014426E3,2.4466023E3,3.6109534E3,6.634274E2,8.270028E1,1.7838895E2,2.5585818E3,3.26668E2,1.4138693E3,1.2954858E2,9.326393E2,3.891354E3,1.8440065E3,4.335735E1,5.3478054E1,2.0848442E3,4.6839707E3,2.3081491E2,2.1355017E2,8.609347E1,1.0634894E3,7.5363715E2,7.18662E1,5.284221E3,4.3407217E3,1.025765E4,4.7860596E1,3.4982367E2,3.319624E1,1.7758538E3,1.6247565E3,3.2246564E2,3.474828E3,5.90616E3,2.660657E2,2.833768E4,7.376866E1,2.3337277E4,5.2754203E4,1.7976229E1,1.3525546E2,2.3255095E3,2.1190874E2,3.9845223E4,1.4218078E4,9.947179E3,3.1961768E3,1.7858365E2,2.4404689E2,1.601847E3,1.6117843E3,6.993747E3,7.571762E1,6.3792847E2,1.7997841E2,1.5016995E1,1.8652597E1,1.19500374E2,2.3703354E3,2.126315E3,2.601863E3,1.5467759E3,5.4666786E1,3.2126108E3,3.983426E2,6.4403E2,1.9397406E1,1.7635015E1,6.506526E1,2.400081E1,1.5438814E2,2.4787866E3,7.979527E1,8.845217E2,5.2934753E2,1.8396828E1,1.11151764E2,8.3484314E2,9.779614E1,1.4154406E3,2.4759136E3,1.2731926E3,5.7081384E2,1.5462572E1,2.7894777E1,6.2117993E2,1.4636643E3,4.538922E3,1.4504916E2,1.7612045E2,5.4694454E1,1.8424193E2,2.9308237E1,1.5884748E1,7.0208725E1,2.7137637E2,7.9211304E2,5.334597E1,7.0029114E2,2.6056156E1,4.5810047E1,4.2259443E3,1.0582766E3,4.0599666E3,2.8075525E2,7.107495E3,3.150155E3,2.138224E2,1.3600128E2,1.5445734E1,1.7750505E1,3.2735474E2,1.448499E3,5.1737933E2,1.1073771E3,1.0470825E2,2.177574E2,2.6827144E3,7.9211334E2,3.3687834E3,2.5373765E3,2.819057E1,2.3787514E2,1.1086629E4,1.725105E4,6.1708677E3,1.716641E4,5.2707816E4,4.6384773E1],"tree_param":{"num_deleted":"0","num_feature":"147","num_nodes":"201","size_leaf_vector":"1"}},{"base_weights":[-3.8202546E-4,-1.3604552E0,1.0845782E0,-1.5700415E0,-6.783921E-1,1.2435704E-1,1.3406788E0,-1.6562784E0,-1.409323E0,-9.652886E-1,-1.05849974E-1,5.337301E-1,-8.118354E-1,8.7165725E-1,1.5296924E0,-1.3949723E0,-1.6685296E0,-1.4686832E0,-1.153758E0,-1.2510902E0,-7.26406E-1,-7.2561586E-1,3.1708467E-1,-6.8708247E-1,6.6953975E-1,5.928312E-1,-6.975355E-2,6.771113E-1,1.1411926E0,1.536377E0,-1.6655585E0,-1.2187896E0,-1.6525396E0,-1.6953039E0,-1.586643E0,-1.4907484E0,-8.4276885E-1,-1.5189655E0,-9.704649E-1,-1.1146427E0,-1.5153459E0,-1.1214789E0,-5.0320965E-1,-4.6040213E-1,-1.3691089E0,-1.009276E0,3.9473897E-1,-1.5459628E0,-3.755051E-1,3.5086158E-1,9.6311307E-1,-3.786844E-1,8.239144E-1,2.6986086E-1,8.144306E-1,1.1539868E0,-7.260918E-2,1.5422313E0,-7.301014E-2,-3.6248956E-2,-7.232157E-2,-1.3137877E0,-2.5394055E-1,-1.691142E0,-8.606175E-1,-1.7121195E0,-1.6587499E0,-1.2838233E0,-1.5978366E0,-1.4118955E0,-1.6009243E0,-1.0293508E0,2.844868E-1,-1.5721327E0,4.7775686E-1,-1.2349118E0,-7.930648E-1,-1.2170898E0,-7.270504E-1,-7.040165E-2,-8.493523E-1,-1.3358113E0,-7.3596776E-1,-8.4044546E-1,-2.1376452E-1,-8.2774436E-1,-2.0938973E-1,-7.05546E-2,-4.667801E-1,1.4899227E-1,-1.5951811E0,1.671856E-1,6.4113253E-1,-1.6005193E0,-6.5178806E-3,-1.4693878E0,-2.4568635E-1,7.264633E-2,6.1499923E-1,9.776773E-1,-7.343493E-2,-7.5198185E-1,5.9647423E-1,6.4165694E-1,1.2267987E0,3.2845664E-1,-6.431052E-1,8.2818043E-1,-7.119257E-2,6.542238E-1,1.1952622E0,1.5473412E0,-7.1904995E-2,-5.789485E-2,-2.193406E-2,3.7353247E-2,-4.386233E-2,-7.0499286E-2,-6.171341E-2,-5.2871265E-2,-8.918761E-3,-6.666358E-2,-6.90996E-2,-6.646912E-2,-1.9494824E-2,-6.720673E-2,-2.541177E-2,-6.537822E-2,-6.1406396E-2,-5.6662E-2,1.7077697E-2,-6.712227E-2,-5.817232E-2,-4.4880774E-2,1.30762E-2,2.8390676E-2,-2.9636137E-2,-4.3927033E-2,-6.476888E-2,3.4851544E-2,-1.0813085E-2,-6.396743E-2,-2.909704E-2,-4.444254E-2,-2.6739804E-2,-6.9012165E-2,-4.5879737E-2,-6.705434E-2,-2.251741E-2,-4.5258258E-2,-2.7328094E-3,-5.563375E-2,-8.962188E-3,-4.2611875E-2,-1.9386576E-2,-3.8119305E-2,-1.7565837E-2,-1.0810352E-2,2.3557182E-2,-6.0224403E-2,-2.8397996E-2,-1.4665781E-2,4.1265516E-3,-5.889517E-3,-4.7733434E-2,-1.2193384E-2,5.1154282E-2,-1.9906279E-2,-6.9189034E-2,9.6001355E-3,-2.285613E-2,2.6648134E-2,-3.6574524E-2,-6.50591E-2,-2.4192464E-2,-6.480591E-2,-0E0,-3.7415855E-2,-2.0634544E-3,-7.967736E-3,1.4584273E-2,1.4642522E-2,3.590455E-2,3.9661884E-2,-7.46126E-2,-4.9638707E-2,-1.2277451E-2,-2.2638058E-2,3.5007525E-2,5.2830833E-3,3.217517E-2,5.028314E-2,-4.839673E-4,6.2485854E-3,2.059988E-2,-6.5361865E-2,-1.779503E-2,2.2003284E-2,3.7058257E-2,-6.680461E-3,3.0719161E-2,3.8544126E-2,5.123194E-2,5.507008E-2,6.525995E-2],"categories":[],"categories_nodes":[],"categories_segments":[],"categories_sizes":[],"default_left":[0,0,0,0,0,0,0,0,0,0,0,0,0,0,0,0,0,0,0,0,0,0,0,0,0,0,0,0,0,0,0,0,0,0,0,0,0,0,0,0,0,0,0,0,0,0,0,0,0,0,0,0,0,0,0,0,0,0,0,0,0,0,0,0,0,0,0,0,0,0,0,0,0,0,0,0,0,0,0,0,0,0,0,0,0,0,0,0,0,0,0,0,0,0,0,0,0,0,0,0,0,0,0,0,0,0,0,0,0,0,0,0,0,0,0,0,0,0,0,0,0,0,0,0,0,0,0,0,0,0,0,0,0,0,0,0,0,0,0,0,0,0,0,0,0,0,0,0,0,0,0,0,0,0,0,0,0,0,0,0,0,0,0,0,0,0,0,0,0,0,0,0,0,0,0,0,0,0,0,0,0,0,0,0,0,0,0,0,0,0,0,0,0,0,0,0,0,0,0,0,0,0,0,0,0],"id":4,"left_children":[1,3,5,7,9,11,13,15,17,19,21,23,25,27,29,31,33,35,37,39,41,43,45,47,49,51,-1,53,55,57,59,61,63,65,67,69,71,73,75,77,79,81,83,85,87,89,91,93,95,97,99,101,103,105,107,109,-1,111,-1,-1,-1,113,115,117,119,121,123,125,127,129,131,133,135,137,139,141,143,145,147,-1,149,151,153,155,157,159,161,-1,163,165,167,169,171,173,-1,175,177,179,181,183,-1,185,187,189,191,193,195,197,-1,199,201,203,-1,-1,-1,-1,-1,-1,-1,-1,-1,-1,-1,-1,-1,-1,-1,-1,-1,-1,-1,-1,-1,-1,-1,-1,-1,-1,-1,-1,-1,-1,-1,-1,-1,-1,-1,-1,-1,-1,-1,-1,-1,-1,-1,-1,-1,-1,-1,-1,-1,-1,-1,-1,-1,-1,-1,-1,-1,-1,-1,-1,-1,-1,-1,-1,-1,-1,-1,-1,-1,-1,-1,-1,-1,-1,-1,-1,-1,-1,-1,-1,-1,-1,-1,-1,-1,-1,-1,-1,-1,-1,-1,-1,-1],"loss_changes":[3.844438E5,1.6521953E4,3.563692E4,1.2170781E3,4.463746E3,1.1697042E4,1.0137172E4,1.7567188E2,4.6240625E2,1.2324258E3,2.3801948E3,3.522104E3,1.2159716E4,1.7203789E3,1.7492188E3,1.10356445E2,1.10734375E2,3.4123438E2,3.8528418E2,2.9066602E2,8.678706E2,6.25782E2,5.567578E2,5.664793E2,1.7862793E3,8.3306995E2,0E0,1.0668857E3,5.269531E2,1.6097031E3,1.2283325E1,1.4070142E2,2.6308105E1,1.5203125E1,3.8464844E1,2.0201172E2,1.8238098E2,2.0932959E2,1.789082E2,2.1260449E2,4.4981348E2,2.9017236E2,6.152053E2,2.3992743E2,3.7858325E2,2.0433731E2,2.852719E2,4.0951416E1,2.2031725E2,6.7334644E2,4.1035938E2,2.6122125E2,2.1661694E2,2.584051E2,5.133428E2,2.7967188E2,0E0,1.3945625E3,0E0,0E0,0E0,1.412019E2,1.4680228E2,6.9433594E-1,1.4601727E1,9.421875E0,4.2316406E1,1.2447858E2,2.0933594E1,1.23302734E2,1.0502539E2,9.449274E1,5.5753372E1,3.5620605E1,1.646727E1,2.8345068E2,8.967163E1,1.4586914E2,1.7473413E2,0E0,1.660769E2,1.379668E2,1.0357495E2,1.2965771E2,1.5460526E2,8.0246216E1,7.678705E1,0E0,7.564787E1,5.4415863E1,2.5702972E1,1.4314374E2,9.712915E1,9.959961E0,0E0,3.6684265E1,1.8719806E2,3.5506595E2,3.292047E2,3.9530957E2,0E0,1.1076959E2,6.6072365E1,1.7079266E2,3.550708E1,1.4507446E2,5.3998177E1,3.8603223E2,0E0,9.9147156E1,2.4614648E2,1.1562031E3,0E0,0E0,0E0,0E0,0E0,0E0,0E0,0E0,0E0,0E0,0E0,0E0,0E0,0E0,0E0,0E0,0E0,0E0,0E0,0E0,0E0,0E0,0E0,0E0,0E0,0E0,0E0,0E0,0E0,0E0,0E0,0E0,0E0,0E0,0E0,0E0,0E0,0E0,0E0,0E0,0E0,0E0,0E0,0E0,0E0,0E0,0E0,0E0,0E0,0E0,0E0,0E0,0E0,0E0,0E0,0E0,0E0,0E0,0E0,0E0,0E0,0E0,0E0,0E0,0E0,0E0,0E0,0E0,0E0,0E0,0E0,0E0,0E0,0E0,0E0,0E0,0E0,0E0,0E0,0E0,0E0,0E0,0E0,0E0,0E0,0E0,0E0,0E0,0E0,0E0,0E0,0E0,0E0],"parents":[2147483647,0,0,1,1,2,2,3,3,4,4,5,5,6,6,7,7,8,8,9,9,10,10,11,11,12,12,13,13,14,14,15,15,16,16,17,17,18,18,19,19,20,20,21,21,22,22,23,23,24,24,25,25,27,27,28,28,29,29,30,30,31,31,32,32,33,33,34,34,35,35,36,36,37,37,38,38,39,39,40,40,41,41,42,42,43,43,44,44,45,45,46,46,47,47,48,48,49,49,50,50,51,51,52,52,53,53,54,54,55,55,57,57,61,61,62,62,63,63,64,64,65,65,66,66,67,67,68,68,69,69,70,70,71,71,72,72,73,73,74,74,75,75,76,76,77,77,78,78,80,80,81,81,82,82,83,83,84,84,85,85,86,86,88,88,89,89,90,90,91,91,92,92,93,93,95,95,96,96,97,97,98,98,99,99,101,101,102,102,103,103,104,104,105,105,106,106,107,107,109,109,110,110,111,111],"right_children":[2,4,6,8,10,12,14,16,18,20,22,24,26,28,30,32,34,36,38,40,42,44,46,48,50,52,-1,54,56,58,60,62,64,66,68,70,72,74,76,78,80,82,84,86,88,90,92,94,96,98,100,102,104,106,108,110,-1,112,-1,-1,-1,114,116,118,120,122,124,126,128,130,132,134,136,138,140,142,144,146,148,-1,150,152,154,156,158,160,162,-1,164,166,168,170,172,174,-1,176,178,180,182,184,-1,186,188,190,192,194,196,198,-1,200,202,204,-1,-1,-1,-1,-1,-1,-1,-1,-1,-1,-1,-1,-1,-1,-1,-1,-1,-1,-1,-1,-1,-1,-1,-1,-1,-1,-1,-1,-1,-1,-1,-1,-1,-1,-1,-1,-1,-1,-1,-1,-1,-1,-1,-1,-1,-1,-1,-1,-1,-1,-1,-1,-1,-1,-1,-1,-1,-1,-1,-1,-1,-1,-1,-1,-1,-1,-1,-1,-1,-1,-1,-1,-1,-1,-1,-1,-1,-1,-1,-1,-1,-1,-1,-1,-1,-1,-1,-1,-1,-1,-1,-1,-1],"split_conditions":[8.124804E-2,2.3591124E-2,7.5E-1,5E0,2.6439206E-4,7.818315E-1,3.2808346E-1,9.132823E-24,1.23885775E-5,-4.615294E-5,-3.6442478E-5,1.9122047E-2,2E0,1.7155245E-3,2.7E1,4.3388373E-1,3E0,5E1,1.2995337E-2,7.818315E-1,3.3333335E-2,7.818315E-1,4.7203207E-6,-3.2707296E-2,1.8461554E-1,7.1428575E-2,-6.975355E-2,3.9247487E-2,1E0,1E0,-2.5829974E-1,4.8E1,6.51E2,2E0,-9.947883E-1,4.3388373E-1,1.2E1,2E0,0E0,4.8E1,0E0,-1.2599805E-4,1.5E1,4.200253E-2,0E0,2.6E1,1.5618498E-3,9.9639505E-1,1.03E2,-8.6159234E-5,1E0,1.3319007E-3,2.9100357E-3,5E0,2.7E1,-7.818315E-1,-7.260918E-2,1E0,-7.301014E-2,-3.6248956E-2,-7.232157E-2,6.13E2,3.31E2,9.749279E-1,9.749279E-1,3.4007992E-16,9.375E1,5.25E2,2.8E1,1.4285715E-1,9.749279E-1,3.5E2,1.0381992E-2,2.7543437E-4,1.0426432E1,-3.6442478E-5,-6.694041E-5,2.7694115E-5,1.6666668E-2,-7.040165E-2,1.5455951E-2,5.1E1,2.2E1,0E0,9.3E1,9.222156E-5,6.831874E-2,-7.05546E-2,1.2119346E-1,9.8596734E-1,2.957481E-4,1E0,9.976336E-1,6.38E2,-6.5178806E-3,9.795299E-1,3.0201618E-4,3.401572E-4,3.401572E-4,2.7E1,-7.343493E-2,5E-2,2.0847225E-3,9.8E1,9.959246E-1,1.8285715E1,-4.953738E-4,4.8060945E-5,-7.119257E-2,3E0,1.7827895E-1,6.2E2,-7.1904995E-2,-5.789485E-2,-2.193406E-2,3.7353247E-2,-4.386233E-2,-7.0499286E-2,-6.171341E-2,-5.2871265E-2,-8.918761E-3,-6.666358E-2,-6.90996E-2,-6.646912E-2,-1.9494824E-2,-6.720673E-2,-2.541177E-2,-6.537822E-2,-6.1406396E-2,-5.6662E-2,1.7077697E-2,-6.712227E-2,-5.817232E-2,-4.4880774E-2,1.30762E-2,2.8390676E-2,-2.9636137E-2,-4.3927033E-2,-6.476888E-2,3.4851544E-2,-1.0813085E-2,-6.396743E-2,-2.909704E-2,-4.444254E-2,-2.6739804E-2,-6.9012165E-2,-4.5879737E-2,-6.705434E-2,-2.251741E-2,-4.5258258E-2,-2.7328094E-3,-5.563375E-2,-8.962188E-3,-4.2611875E-2,-1.9386576E-2,-3.8119305E-2,-1.7565837E-2,-1.0810352E-2,2.3557182E-2,-6.0224403E-2,-2.8397996E-2,-1.4665781E-2,4.1265516E-3,-5.889517E-3,-4.7733434E-2,-1.2193384E-2,5.1154282E-2,-1.9906279E-2,-6.9189034E-2,9.6001355E-3,-2.285613E-2,2.6648134E-2,-3.6574524E-2,-6.50591E-2,-2.4192464E-2,-6.480591E-2,-0E0,-3.7415855E-2,-2.0634544E-3,-7.967736E-3,1.4584273E-2,1.4642522E-2,3.590455E-2,3.9661884E-2,-7.46126E-2,-4.9638707E-2,-1.2277451E-2,-2.2638058E-2,3.5007525E-2,5.2830833E-3,3.217517E-2,5.028314E-2,-4.839673E-4,6.2485854E-3,2.059988E-2,-6.5361865E-2,-1.779503E-2,2.2003284E-2,3.7058257E-2,-6.680461E-3,3.0719161E-2,3.8544126E-2,5.123194E-2,5.507008E-2,6.525995E-2],"split_indices":[107,107,129,98,110,44,107,29,110,108,108,29,26,110,114,44,98,144,107,44,23,44,29,110,107,22,0,91,71,71,39,146,4,98,48,44,19,16,43,98,43,110,19,107,43,98,111,48,4,110,71,110,110,114,114,43,0,63,0,0,0,4,4,44,44,29,129,4,9,22,44,15,107,105,31,108,108,31,23,0,123,146,146,110,88,29,107,0,40,39,109,114,40,4,0,34,29,108,108,114,0,23,29,88,40,125,108,108,0,86,107,88,0,0,0,0,0,0,0,0,0,0,0,0,0,0,0,0,0,0,0,0,0,0,0,0,0,0,0,0,0,0,0,0,0,0,0,0,0,0,0,0,0,0,0,0,0,0,0,0,0,0,0,0,0,0,0,0,0,0,0,0,0,0,0,0,0,0,0,0,0,0,0,0,0,0,0,0,0,0,0,0,0,0,0,0,0,0,0,0,0,0,0,0,0],"split_type":[0,0,0,0,0,0,0,0,0,0,0,0,0,0,0,0,0,0,0,0,0,0,0,0,0,0,0,0,0,0,0,0,0,0,0,0,0,0,0,0,0,0,0,0,0,0,0,0,0,0,0,0,0,0,0,0,0,0,0,0,0,0,0,0,0,0,0,0,0,0,0,0,0,0,0,0,0,0,0,0,0,0,0,0,0,0,0,0,0,0,0,0,0,0,0,0,0,0,0,0,0,0,0,0,0,0,0,0,0,0,0,0,0,0,0,0,0,0,0,0,0,0,0,0,0,0,0,0,0,0,0,0,0,0,0,0,0,0,0,0,0,0,0,0,0,0,0,0,0,0,0,0,0,0,0,0,0,0,0,0,0,0,0,0,0,0,0,0,0,0,0,0,0,0,0,0,0,0,0,0,0,0,0,0,0,0,0,0,0,0,0,0,0,0,0,0,0,0,0,0,0,0,0,0,0],"sum_hessian":[2.6052336E5,1.15604625E5,1.4491873E5,8.842765E4,2.7176969E4,3.0514473E4,1.14404266E5,5.7528527E4,3.0899125E4,1.8102844E4,9.074126E3,2.1232059E4,9.282414E3,3.2867008E4,8.153726E4,2.5936746E3,5.493485E4,2.5061812E4,5.837313E3,8.235273E3,9.86757E3,3.6802075E3,5.393919E3,2.1239255E3,1.9108135E4,3.7026018E3,5.579812E3,1.9096137E4,1.3770871E4,8.136874E4,1.6851115E2,1.5515264E3,1.0421482E3,4.1349645E4,1.3585206E4,2.4203623E4,8.581887E2,1.9424453E3,3.8948677E3,5.4425703E3,2.792703E3,3.557043E3,6.310527E3,2.6103027E3,1.0699049E3,2.9598416E2,5.0979346E3,5.618007E2,1.5621248E3,9.166285E3,9.941849E3,7.106829E2,2.991919E3,4.818464E3,1.4277674E4,1.3713522E4,5.7348694E1,8.1229055E4,1.3968962E2,3.0666718E1,1.3784444E2,1.4109977E3,1.4052869E2,9.898595E2,5.2288776E1,2.8217744E4,1.3131902E4,4.9823645E2,1.308697E4,1.4133942E4,1.0069681E4,7.369189E2,1.212698E2,1.89293E3,4.9515156E1,1.555465E3,2.3394028E3,4.2986543E3,1.1439163E3,2.0381713E3,7.545317E2,2.2804763E3,1.2765667E3,2.911208E3,3.399319E3,1.0560092E3,1.5542936E3,7.419109E2,3.2799396E2,9.989223E1,1.9609193E2,2.6539658E3,2.4439688E3,5.396784E2,2.2122322E1,1.6202838E2,1.4000964E3,4.4669653E3,4.6993203E3,9.892505E3,4.9343983E1,5.148096E2,1.9587332E2,2.0662185E3,9.2570056E2,4.5301772E3,2.882864E2,1.4204622E4,7.30512E1,1.0509716E3,1.2662551E4,8.110672E4,1.2233165E2,1.1985085E3,2.124892E2,5.7938797E1,8.258989E1,6.440351E2,3.4582434E2,2.8020668E1,2.4268108E1,7.2128867E3,2.1004857E4,1.3096922E4,3.49798E1,3.0580325E2,1.924332E2,8.208154E3,4.8788154E3,1.4099216E4,3.4726818E1,6.575606E3,3.4940747E3,6.90618E2,4.6300915E1,8.671559E1,3.455421E1,1.7862636E2,1.7143037E3,3.2560764E1,1.6954391E1,9.0116705E2,6.542979E2,6.5065466E2,1.6887482E3,5.1158405E2,3.78707E3,1.6408612E2,9.7983014E2,5.528569E2,2.016748E2,2.17177E3,1.08706474E2,5.474435E2,7.291231E2,2.26942E3,6.4178796E2,3.1782444E3,2.2107469E2,1.5047702E2,9.055321E2,1.0347574E3,5.1953613E2,2.3078842E2,9.720554E1,7.251399E1,2.7378237E1,2.3358871E1,1.7273306E2,2.4182515E3,2.3571431E2,2.407207E3,3.67618E1,5.2362476E2,1.6053612E1,1.467201E2,1.5308284E1,3.0440344E2,1.095693E3,2.3127974E3,2.1541677E3,2.503133E3,2.1961873E3,9.846597E3,4.590821E1,2.4220377E2,2.7260583E2,3.6936672E1,1.5893665E2,5.021614E2,1.564057E3,9.039663E2,2.1734253E1,2.3596177E3,2.1705596E3,4.4013344E1,2.4427306E2,3.7154995E3,1.0489123E4,1.2716041E2,9.2381116E2,3.4261416E3,9.236409E3,2.6813432E4,5.429329E4],"tree_param":{"num_deleted":"0","num_feature":"147","num_nodes":"205","size_leaf_vector":"1"}},{"base_weights":[6.807951E-4,-1.2552868E0,1.0668374E0,-1.5019673E0,-5.7912683E-1,9.545406E-2,1.3051339E0,-1.5441873E0,-9.450477E-1,-1.2889066E0,-3.553496E-1,-1.6133976E0,2.6561248E-1,9.0908146E-1,1.5023019E0,-1.6075106E0,-1.3934138E0,-1.2237108E0,-5.795426E-1,-1.0071982E0,-1.6024712E0,-7.2361165E-1,-1.4405786E-2,-1.6808847E0,1.0324861E0,-1.1651039E0,3.946163E-1,6.7903346E-1,1.0932924E0,1.5083579E0,-1.6411955E0,-1.3455606E0,-1.6197459E0,-1.4134685E0,-8.068789E-1,-1.5723041E0,-1.069728E0,-8.2680625E-1,-3.8534064E-2,-1.3753196E0,-8.2515174E-1,-1.6161926E0,5.1694874E-2,-1.0886104E0,-4.3523824E-1,-5.165957E-1,3.109348E-1,-6.7508206E-2,-3.8346082E-2,4.786234E-2,1.780475E-2,-6.795563E-1,-1.5010704E0,-1.2283411E-2,8.0271214E-1,3.8777962E-1,7.916842E-1,1.1005677E0,-6.95668E-2,1.5130665E0,-6.9430575E-2,-4.120766E-2,-7.010565E-2,-1.00185014E-1,-1.4145554E0,-1.6453487E0,-1.5409414E0,-1.3391573E0,-1.5071365E0,2.5618816E-2,-9.3892914E-1,-1.1862469E0,-1.6121767E0,-9.130283E-1,-1.2116339E0,-9.660504E-1,-4.3441784E-1,1.455167E-1,-1.0861909E0,-1.4475257E0,-9.779875E-1,-1.0429212E0,-4.921232E-1,-1.651963E0,-1.4222338E0,-8.384552E-1,-1.3137078E0,-6.33753E-1,-1.7646217E-1,-1.6149265E-1,-8.951683E-1,1.5351474E-1,9.9317265E-1,-1.3076847E0,-4.8031896E-1,-1.6063108E0,-1.1229036E0,4.9440944E-1,-5.5745274E-1,5.394763E-1,1.0661087E0,-1.3206774E-1,4.854932E-1,-1.4403881E0,8.028312E-1,-6.805827E-2,1.1070511E0,-7.268143E-2,1.5175196E0,-4.7351394E-2,4.8844557E-2,-6.06469E-2,-3.2379877E-2,-6.585295E-2,-2.759983E-4,-6.2716834E-2,-5.571296E-2,-5.6712784E-2,-4.6786703E-2,-6.816227E-2,-5.581282E-2,3.1075489E-2,-2.6332835E-2,-5.2261252E-2,-2.234353E-2,-5.544236E-2,1.6892238E-3,-4.7249574E-2,-6.5391436E-2,-4.956471E-2,-2.8343601E-2,-5.347468E-2,-3.9158538E-2,-1.86131E-2,-4.338054E-2,-2.9781384E-2,-4.1521997E-3,2.350715E-3,5.2196708E-2,-5.8050316E-2,4.3674044E-2,-6.0587782E-2,-3.959326E-2,-5.582536E-2,-5.702968E-3,-1.7773772E-2,-4.354762E-2,-2.5331948E-2,8.364336E-4,-2.8555388E-2,-6.6306084E-2,-1.5753655E-2,-5.8354728E-2,-3.54442E-2,1.107701E-2,-6.818378E-2,-3.9570983E-2,-3.2621827E-2,-1.9550795E-2,-1.0787237E-2,1.5258974E-2,-1.3007216E-2,2.648423E-2,-6.7325674E-2,-1.4402335E-2,8.219921E-3,-2.2618355E-2,2.5540467E-2,5.0890956E-2,-5.823432E-2,1.3566028E-2,-2.1660304E-2,2.7626064E-2,-6.525345E-2,-3.0393943E-2,-1.094246E-2,-5.329538E-2,2.0414034E-3,3.1195883E-2,2.2072712E-2,-6.832233E-2,-6.9387764E-2,2.257812E-2,3.5415534E-2,5.187355E-2,-2.272241E-2,3.7140958E-3,2.12486E-2,-1.1808942E-2,-7.406473E-2,-1.1299004E-2,3.261071E-2,-6.828204E-2,4.4532012E-2,-6.0341887E-2,5.5231854E-2,6.3807674E-2],"categories":[],"categories_nodes":[],"categories_segments":[],"categories_sizes":[],"default_left":[0,0,0,0,0,0,0,0,0,0,0,0,0,0,0,0,0,0,0,0,0,0,0,0,0,0,0,0,0,0,0,0,0,0,0,0,0,0,0,0,0,0,0,0,0,0,0,0,0,0,0,0,0,0,0,0,0,0,0,0,0,0,0,0,0,0,0,0,0,0,0,0,0,0,0,0,0,0,0,0,0,0,0,0,0,0,0,0,0,0,0,0,0,0,0,0,0,0,0,0,0,0,0,0,0,0,0,0,0,0,0,0,0,0,0,0,0,0,0,0,0,0,0,0,0,0,0,0,0,0,0,0,0,0,0,0,0,0,0,0,0,0,0,0,0,0,0,0,0,0,0,0,0,0,0,0,0,0,0,0,0,0,0,0,0,0,0,0,0,0,0,0,0,0,0,0,0,0,0,0,0,0,0,0,0,0,0,0,0,0,0,0,0,0,0,0,0],"id":5,"left_children":[1,3,5,7,9,11,13,15,17,19,21,23,25,27,29,31,33,35,37,39,41,43,45,47,49,51,53,55,57,59,61,63,65,67,69,71,73,75,77,79,81,83,-1,85,87,89,91,-1,-1,-1,-1,93,95,97,99,101,103,105,-1,107,-1,-1,-1,109,111,113,115,117,119,121,123,125,127,129,131,133,135,137,139,141,143,145,147,149,151,153,155,157,159,161,163,165,167,169,171,173,175,177,179,181,183,185,187,189,191,-1,193,-1,195,-1,-1,-1,-1,-1,-1,-1,-1,-1,-1,-1,-1,-1,-1,-1,-1,-1,-1,-1,-1,-1,-1,-1,-1,-1,-1,-1,-1,-1,-1,-1,-1,-1,-1,-1,-1,-1,-1,-1,-1,-1,-1,-1,-1,-1,-1,-1,-1,-1,-1,-1,-1,-1,-1,-1,-1,-1,-1,-1,-1,-1,-1,-1,-1,-1,-1,-1,-1,-1,-1,-1,-1,-1,-1,-1,-1,-1,-1,-1,-1,-1,-1,-1,-1,-1,-1,-1,-1],"loss_changes":[3.4629572E5,1.9801E4,3.2376922E4,2.0399062E3,5.039824E3,8.013775E3,8.7656875E3,7.637656E2,6.222334E2,6.6585645E2,3.0305007E3,4.5117627E2,4.627219E3,1.5792676E3,1.4348125E3,1.7442188E2,2.7707422E2,1.8041797E2,3.55588E2,2.6464502E2,1.4919824E2,1.2192241E3,2.049167E3,5.8183594E0,3.7247925E0,3.341062E2,3.818773E3,5.435747E2,4.3260938E2,1.1509844E3,3.0967102E0,2.1875195E2,1.00484375E2,1.5361328E2,8.8399414E1,9.161377E0,4.9520264E1,9.782532E1,1.6268924E2,3.251245E1,1.9319495E2,1.6245117E1,0E0,2.8385938E2,3.325686E2,6.619524E2,8.1630304E2,0E0,0E0,0E0,0E0,1.0410904E2,4.1876465E1,3.182105E3,7.935171E2,2.3609766E2,3.0111816E2,3.8101172E2,0E0,1.116375E3,0E0,0E0,0E0,2.0185838E2,1.442334E2,6.4625E1,4.545117E1,1.661914E2,2.1616992E2,5.9055347E1,9.341809E1,2.8252243E1,2.0563965E0,7.411029E1,3.1664673E1,7.7466675E1,4.9042686E1,7.107332E1,1.05202896E2,2.8456787E1,7.3247406E1,4.2337402E1,7.801703E1,1.1277832E1,1.9239014E1,1.3039331E2,3.3448145E2,9.486609E1,1.4701962E2,3.4409164E2,1.00296704E3,2.3143066E2,1.377273E2,5.1655212E1,4.7889954E1,1.5174316E1,4.7412933E1,7.551362E2,7.0864277E3,3.2892188E2,2.3459082E2,7.255294E1,1.4008258E2,2.6105728E1,3.757544E2,0E0,3.420957E2,0E0,7.845E2,0E0,0E0,0E0,0E0,0E0,0E0,0E0,0E0,0E0,0E0,0E0,0E0,0E0,0E0,0E0,0E0,0E0,0E0,0E0,0E0,0E0,0E0,0E0,0E0,0E0,0E0,0E0,0E0,0E0,0E0,0E0,0E0,0E0,0E0,0E0,0E0,0E0,0E0,0E0,0E0,0E0,0E0,0E0,0E0,0E0,0E0,0E0,0E0,0E0,0E0,0E0,0E0,0E0,0E0,0E0,0E0,0E0,0E0,0E0,0E0,0E0,0E0,0E0,0E0,0E0,0E0,0E0,0E0,0E0,0E0,0E0,0E0,0E0,0E0,0E0,0E0,0E0,0E0,0E0,0E0,0E0,0E0,0E0,0E0,0E0,0E0,0E0,0E0],"parents":[2147483647,0,0,1,1,2,2,3,3,4,4,5,5,6,6,7,7,8,8,9,9,10,10,11,11,12,12,13,13,14,14,15,15,16,16,17,17,18,18,19,19,20,20,21,21,22,22,23,23,24,24,25,25,26,26,27,27,28,28,29,29,30,30,31,31,32,32,33,33,34,34,35,35,36,36,37,37,38,38,39,39,40,40,41,41,43,43,44,44,45,45,46,46,51,51,52,52,53,53,54,54,55,55,56,56,57,57,59,59,63,63,64,64,65,65,66,66,67,67,68,68,69,69,70,70,71,71,72,72,73,73,74,74,75,75,76,76,77,77,78,78,79,79,80,80,81,81,82,82,83,83,84,84,85,85,86,86,87,87,88,88,89,89,90,90,91,91,92,92,93,93,94,94,95,95,96,96,97,97,98,98,99,99,100,100,101,101,102,102,103,103,104,104,106,106,108,108],"right_children":[2,4,6,8,10,12,14,16,18,20,22,24,26,28,30,32,34,36,38,40,42,44,46,48,50,52,54,56,58,60,62,64,66,68,70,72,74,76,78,80,82,84,-1,86,88,90,92,-1,-1,-1,-1,94,96,98,100,102,104,106,-1,108,-1,-1,-1,110,112,114,116,118,120,122,124,126,128,130,132,134,136,138,140,142,144,146,148,150,152,154,156,158,160,162,164,166,168,170,172,174,176,178,180,182,184,186,188,190,192,-1,194,-1,196,-1,-1,-1,-1,-1,-1,-1,-1,-1,-1,-1,-1,-1,-1,-1,-1,-1,-1,-1,-1,-1,-1,-1,-1,-1,-1,-1,-1,-1,-1,-1,-1,-1,-1,-1,-1,-1,-1,-1,-1,-1,-1,-1,-1,-1,-1,-1,-1,-1,-1,-1,-1,-1,-1,-1,-1,-1,-1,-1,-1,-1,-1,-1,-1,-1,-1,-1,-1,-1,-1,-1,-1,-1,-1,-1,-1,-1,-1,-1,-1,-1,-1,-1,-1,-1,-1,-1,-1],"split_conditions":[5.710758E-3,1.8E1,8.0037134E-4,1.4524547E-5,1.9090194E-3,-2.6298916E-1,2.53E2,5E0,1.0361969E-1,2.3E2,2.8625154E-1,5E0,7.237482E-3,8.978758E-1,2.7E1,9.132823E-24,1.4533025E1,6.172812E-2,1.4800662E-3,-1.19676995E-4,1.0188415E0,-4.615294E-5,-3.6442478E-5,7.204713E-1,2.2E1,1E2,-3.6442478E-5,8.874826E-3,1E0,1E0,4.4678837E-1,-9.8846835E-1,3E0,4E0,3.1470652E0,-9.377521E-1,-5.064917E-2,1.1818737E1,1.1E2,3.8E1,1.602749E-1,2.500855E-1,5.1694874E-2,4E0,2.02237E-1,4E0,1.0096214E-2,-6.7508206E-2,-3.8346082E-2,4.786234E-2,1.780475E-2,-2.2335853E-3,5.107159E-1,6.234898E-1,1.4285715E-1,-4.3669218E-4,5E0,5E0,-6.95668E-2,4E0,-6.9430575E-2,-4.120766E-2,-7.010565E-2,9.749279E-1,3.75769E-1,3.5E2,3.75769E-1,2.57049E-1,5E0,1.0666667E1,2.601E-1,4.23801E-1,6.466943E-5,2.1577824E-4,8.97519E-2,7.438475E-5,2.0305E1,2.0306362E-1,3.61201E-1,9.2107797E-1,-8.027912E-4,-9.680771E-1,2.77729E-1,1.4825656E-5,2E0,5.2934605E1,5E0,2.4149944E-4,1.2E2,1.2933932E-2,5E0,4E0,2.1428572E-1,3.612676E2,1.0188415E0,2.129129E2,4E0,1.4285715E-1,4E0,5E0,2.4143267E-1,1.3333333E1,2E0,1.2E1,2.7E1,-6.805827E-2,2.7E1,-7.268143E-2,3.95E2,-4.7351394E-2,4.8844557E-2,-6.06469E-2,-3.2379877E-2,-6.585295E-2,-2.759983E-4,-6.2716834E-2,-5.571296E-2,-5.6712784E-2,-4.6786703E-2,-6.816227E-2,-5.581282E-2,3.1075489E-2,-2.6332835E-2,-5.2261252E-2,-2.234353E-2,-5.544236E-2,1.6892238E-3,-4.7249574E-2,-6.5391436E-2,-4.956471E-2,-2.8343601E-2,-5.347468E-2,-3.9158538E-2,-1.86131E-2,-4.338054E-2,-2.9781384E-2,-4.1521997E-3,2.350715E-3,5.2196708E-2,-5.8050316E-2,4.3674044E-2,-6.0587782E-2,-3.959326E-2,-5.582536E-2,-5.702968E-3,-1.7773772E-2,-4.354762E-2,-2.5331948E-2,8.364336E-4,-2.8555388E-2,-6.6306084E-2,-1.5753655E-2,-5.8354728E-2,-3.54442E-2,1.107701E-2,-6.818378E-2,-3.9570983E-2,-3.2621827E-2,-1.9550795E-2,-1.0787237E-2,1.5258974E-2,-1.3007216E-2,2.648423E-2,-6.7325674E-2,-1.4402335E-2,8.219921E-3,-2.2618355E-2,2.5540467E-2,5.0890956E-2,-5.823432E-2,1.3566028E-2,-2.1660304E-2,2.7626064E-2,-6.525345E-2,-3.0393943E-2,-1.094246E-2,-5.329538E-2,2.0414034E-3,3.1195883E-2,2.2072712E-2,-6.832233E-2,-6.9387764E-2,2.257812E-2,3.5415534E-2,5.187355E-2,-2.272241E-2,3.7140958E-3,2.12486E-2,-1.1808942E-2,-7.406473E-2,-1.1299004E-2,3.261071E-2,-6.828204E-2,4.4532012E-2,-6.0341887E-2,5.5231854E-2,6.3807674E-2],"split_indices":[90,98,130,108,29,108,98,98,102,6,102,26,29,102,114,29,32,102,111,108,102,108,108,111,132,6,108,90,63,63,102,42,98,26,3,42,34,138,6,98,102,102,0,26,102,26,111,0,0,0,0,108,102,36,50,108,7,7,0,7,0,0,0,43,5,77,5,5,26,126,5,5,108,111,102,111,112,92,5,39,108,42,5,111,25,103,26,111,120,111,26,114,21,112,102,112,8,50,26,7,92,127,114,25,114,0,114,0,98,0,0,0,0,0,0,0,0,0,0,0,0,0,0,0,0,0,0,0,0,0,0,0,0,0,0,0,0,0,0,0,0,0,0,0,0,0,0,0,0,0,0,0,0,0,0,0,0,0,0,0,0,0,0,0,0,0,0,0,0,0,0,0,0,0,0,0,0,0,0,0,0,0,0,0,0,0,0,0,0,0,0,0,0,0,0,0,0],"split_type":[0,0,0,0,0,0,0,0,0,0,0,0,0,0,0,0,0,0,0,0,0,0,0,0,0,0,0,0,0,0,0,0,0,0,0,0,0,0,0,0,0,0,0,0,0,0,0,0,0,0,0,0,0,0,0,0,0,0,0,0,0,0,0,0,0,0,0,0,0,0,0,0,0,0,0,0,0,0,0,0,0,0,0,0,0,0,0,0,0,0,0,0,0,0,0,0,0,0,0,0,0,0,0,0,0,0,0,0,0,0,0,0,0,0,0,0,0,0,0,0,0,0,0,0,0,0,0,0,0,0,0,0,0,0,0,0,0,0,0,0,0,0,0,0,0,0,0,0,0,0,0,0,0,0,0,0,0,0,0,0,0,0,0,0,0,0,0,0,0,0,0,0,0,0,0,0,0,0,0,0,0,0,0,0,0,0,0,0,0,0,0,0,0,0,0,0,0],"sum_hessian":[2.5860548E5,1.18733055E5,1.3987244E5,8.6991805E4,3.174125E4,2.7554904E4,1.1231753E5,8.0855914E4,6.1358867E3,7.6045425E3,2.4136709E4,2.4927324E3,2.5062172E4,3.7337277E4,7.498026E4,5.6918465E4,2.3937451E4,3.4767676E3,2.6591191E3,4.0132473E3,3.5912952E3,1.1601164E4,1.2535545E4,2.4319844E3,6.074824E1,2.0705684E3,2.2991604E4,1.661044E4,2.0726838E4,7.48378E4,1.424574E2,2.5566196E3,5.4361848E4,2.314113E4,7.96321E2,1.0557753E3,2.4209922E3,1.82329E3,8.358291E2,1.3205378E3,2.6927095E3,3.5758438E3,1.5451501E1,5.115869E3,6.4852944E3,4.9282144E3,7.60733E3,2.4045737E3,2.7410479E1,4.438674E1,1.6361502E1,8.510969E2,1.2194714E3,1.1513517E4,1.1478086E4,4.6376787E3,1.1972761E4,2.067574E4,5.109635E1,7.4731086E4,1.0671204E2,2.740841E1,1.1504898E2,1.3497041E2,2.4216492E3,4.0981375E4,1.3380472E4,1.293244E4,1.020869E4,1.0883193E2,6.87489E2,1.0864426E2,9.4713104E2,1.1627975E3,1.2581948E3,1.3415597E3,4.8173026E2,7.127248E2,1.2310435E2,1.1096891E3,2.1084871E2,1.6233163E3,1.0693931E3,2.9978447E3,5.7799896E2,2.4308328E3,2.6850361E3,3.6664065E3,2.8188882E3,2.5458213E3,2.382393E3,6.18468E3,1.4226498E3,2.003285E2,6.5076843E2,9.4532965E2,2.7414178E2,5.9670063E3,5.5465103E3,5.7463174E3,5.731769E3,7.3282007E2,3.9048584E3,5.736073E1,1.19154E4,4.5740543E1,2.063E4,9.801796E1,7.463307E4,7.453487E1,6.0435543E1,2.06885E3,3.5279907E2,4.095668E4,2.4693197E1,1.1291577E4,2.0888945E3,8.815849E3,4.1165923E3,3.680219E3,6.528471E3,5.2017292E1,5.6814644E1,3.4521555E2,3.4227347E2,9.3464424E1,1.5179828E1,5.627968E1,8.908513E2,4.4128928E2,7.2150824E2,8.072907E2,4.509041E2,2.6030438E2,1.0812554E3,2.4585167E2,2.3587859E2,6.664434E2,4.628137E1,1.064865E2,1.6617844E1,9.6068353E2,1.490056E2,1.3883228E2,7.2016426E1,1.1836556E2,1.5049508E3,8.3883563E2,2.3055748E2,2.0888435E1,2.9769563E3,2.1563877E1,5.5643506E2,2.332262E3,9.857096E1,1.2113104E3,1.4737258E3,1.6190166E3,2.0473899E3,2.4174346E3,4.0145343E2,2.125756E3,4.2006512E2,9.605578E2,1.4218353E3,5.770313E3,4.143675E2,6.3165045E2,7.909993E2,1.8438963E2,1.5938867E1,6.2038983E2,3.0378565E1,9.1490814E2,3.0421562E1,5.6077976E1,2.1806383E2,2.3392854E3,3.627721E3,2.824554E3,2.7219565E3,5.997668E1,5.6863403E3,3.223571E3,2.508198E3,2.4859044E2,4.842296E2,3.6903372E3,2.1452138E2,4.0683105E1,1.6677626E1,1.1858864E4,5.6536434E1,2.0582738E4,4.7262028E1,2.7061182E4,4.7571887E4],"tree_param":{"num_deleted":"0","num_feature":"147","num_nodes":"197","size_leaf_vector":"1"}},{"base_weights":[-9.0041163E-4,-1.2866204E0,1.0073801E0,-1.4785242E0,-6.487001E-1,1.255014E-1,1.2524151E0,-1.5603316E0,-1.3267261E0,-9.3461186E-1,-7.882989E-2,5.014567E-1,-7.5660753E-1,8.326805E-1,1.4494375E0,-1.5613116E0,-3.3152018E-2,-1.2570066E0,-1.5449977E0,-8.4396714E-1,-1.5399126E0,2.0951109E-1,-3.6156464E-1,-1.0900979E0,5.8563113E-1,5.370699E-1,-6.597235E-2,8.564278E-1,-1.246887E0,1.4648433E0,-6.976245E-1,-1.5838555E0,-1.491185E0,6.761576E-2,-6.012784E-2,-1.3300663E0,-8.8762754E-1,-1.5495603E0,1.1498466E-2,-1.128316E0,-6.3061124E-1,-1.5845863E0,-1.212407E0,-3.371835E-1,3.813334E-1,-1.12520345E-1,-6.665754E-2,-1.4251707E0,-3.2252833E-1,3.329489E-1,9.713759E-1,-9.7257054E-1,6.838883E-1,6.7522156E-1,1.1125056E0,-7.6040894E-2,5.459379E-2,1.3112675E0,1.5406674E0,-7.216361E-2,6.3639104E-2,-1.5403225E0,-1.6117672E0,-1.559934E0,-1.4030362E0,-1.3508638E0,-6.950095E-1,-1.3204889E0,-6.23082E-1,-1.5789244E0,-1.3788569E0,-1.2426381E0,-7.5830066E-1,-8.681529E-1,-3.1581077E-1,-1.6195472E0,-1.1843374E0,-1.3406563E0,-5.605456E-1,-9.568451E-1,-1.6414908E-1,4.6207753E-1,-8.0675167E-1,-4.9996778E-1,2.4598566E-1,-1.5203767E0,-5.353439E-1,3.2616697E-2,-9.320792E-1,9.876742E-2,6.2892795E-1,9.8439664E-1,-7.013101E-2,-3.1322423E-1,-1.1772707E0,4.844702E-1,1.1438384E0,4.05986E-1,8.9239085E-1,9.088026E-1,1.2079002E0,1.1107782E0,1.3869201E0,1.5472845E0,6.1115915E-1,-6.1804544E-2,-4.0257387E-2,-6.537218E-2,-6.348624E-2,-6.3934736E-2,-5.9025567E-2,-5.7730045E-2,-5.1055655E-2,-5.7478677E-2,-4.9690764E-2,-3.7808564E-2,-2.3101524E-3,-5.4015595E-2,2.5895007E-2,-3.824221E-2,-1.8116862E-2,-6.0823057E-2,-6.571589E-2,-2.8657462E-2,-5.9036996E-2,-4.0875375E-2,-5.769979E-2,-1.6349472E-2,-4.391512E-2,-4.239227E-2,-2.3977092E-2,-1.1262829E-2,-7.180062E-2,-6.532068E-2,-5.014214E-2,2.4418604E-2,-6.3377425E-2,-6.1108027E-2,-2.824315E-2,-4.1372392E-2,1.3786543E-2,-4.592841E-2,1.1173884E-2,1.8066062E-2,-1.24079045E-2,9.330069E-3,2.7530374E-2,7.955435E-3,-5.7536248E-2,-2.7020372E-2,-8.385332E-3,-3.4978848E-2,1.4176364E-2,-6.278908E-2,-1.6074324E-2,1.7896134E-2,-5.6218743E-2,3.7730515E-2,-1.12688E-2,-5.4259352E-2,-5.1375893E-3,5.5181747E-3,-7.298592E-2,1.3315987E-2,3.3809707E-2,2.3320623E-2,4.281507E-2,-6.32926E-2,8.30262E-3,-5.2715834E-2,-1.5562993E-2,3.6822814E-3,3.1478718E-2,1.0835982E-2,4.7405653E-2,8.8224356E-4,1.9929744E-2,2.5665058E-2,3.9042857E-2,3.0660376E-2,4.229667E-2,4.2835254E-2,5.1253375E-2,4.5018416E-2,-2.7045263E-2,5.578931E-2,1.3792078E-2,5.7271823E-2,6.3086316E-2,-7.1073055E-2,4.291684E-2],"categories":[],"categories_nodes":[],"categories_segments":[],"categories_sizes":[],"default_left":[0,0,0,0,0,0,0,0,0,0,0,0,0,0,0,0,0,0,0,0,0,0,0,0,0,0,0,0,0,0,0,0,0,0,0,0,0,0,0,0,0,0,0,0,0,0,0,0,0,0,0,0,0,0,0,0,0,0,0,0,0,0,0,0,0,0,0,0,0,0,0,0,0,0,0,0,0,0,0,0,0,0,0,0,0,0,0,0,0,0,0,0,0,0,0,0,0,0,0,0,0,0,0,0,0,0,0,0,0,0,0,0,0,0,0,0,0,0,0,0,0,0,0,0,0,0,0,0,0,0,0,0,0,0,0,0,0,0,0,0,0,0,0,0,0,0,0,0,0,0,0,0,0,0,0,0,0,0,0,0,0,0,0,0,0,0,0,0,0,0,0,0,0,0,0,0,0,0,0,0,0,0,0,0,0,0,0,0,0,0,0],"id":6,"left_children":[1,3,5,7,9,11,13,15,17,19,21,23,25,27,29,31,33,35,37,39,41,43,45,47,49,51,-1,53,55,57,59,61,63,-1,-1,65,67,69,-1,71,73,75,77,79,81,83,-1,85,87,89,91,93,95,97,99,-1,-1,101,103,-1,-1,105,107,109,111,113,115,117,119,121,123,125,127,129,131,133,135,137,139,141,143,145,147,149,151,153,155,157,159,161,163,165,-1,167,169,171,173,175,177,179,181,183,185,187,189,-1,-1,-1,-1,-1,-1,-1,-1,-1,-1,-1,-1,-1,-1,-1,-1,-1,-1,-1,-1,-1,-1,-1,-1,-1,-1,-1,-1,-1,-1,-1,-1,-1,-1,-1,-1,-1,-1,-1,-1,-1,-1,-1,-1,-1,-1,-1,-1,-1,-1,-1,-1,-1,-1,-1,-1,-1,-1,-1,-1,-1,-1,-1,-1,-1,-1,-1,-1,-1,-1,-1,-1,-1,-1,-1,-1,-1,-1,-1,-1,-1,-1,-1,-1,-1,-1],"loss_changes":[3.3235703E5,1.3790859E4,3.104914E4,1.0680469E3,4.2461533E3,1.0363814E4,9.294203E3,8.3265625E1,4.5473438E2,9.4719434E2,7.105498E2,2.9371729E3,1.0788247E4,1.7773105E3,2.5345312E3,8.028125E1,1.0755004E2,6.167422E2,6.328711E1,9.1324316E2,2.5848633E1,4.056704E2,1.4286809E3,2.8102393E2,2.0270942E3,8.47433E2,0E0,1.6453145E3,7.027537E2,8.7725E2,1.3937312E3,4.2617188E1,7.5197266E1,0E0,0E0,2.4996094E2,4.331206E2,2.8666016E1,0E0,2.6983887E2,6.4440137E2,2.0469727E1,2.0615906E1,1.0968648E2,3.1605182E2,5.1429895E2,0E0,6.1371704E1,7.393447E1,8.7148364E2,2.969624E2,4.3913666E1,3.1662427E2,1.215168E3,2.8160156E2,0E0,0E0,3.753672E2,3.088047E2,0E0,0E0,3.6710938E1,4.9296875E0,1.6291016E1,2.3935547E1,1.6725E2,9.760031E1,8.7866455E1,1.32427E2,1.4138672E1,6.6465576E1,2.121499E2,1.8020374E2,2.5063452E2,1.8584702E2,1.3212891E0,1.2611865E2,2.3575531E1,2.398927E1,5.4422516E1,7.332872E1,1.5836292E2,1.3469992E2,8.982181E1,2.3423578E2,3.516931E1,7.0017715E1,6.3129936E1,4.1515747E1,5.296561E2,3.5433472E2,2.802334E2,0E0,5.784993E1,2.6103394E1,2.8812268E2,3.6138184E1,3.2907788E2,2.3898145E2,9.6197266E1,9.543848E1,1.8361035E2,1.4615234E2,1.6589062E2,4.077221E2,0E0,0E0,0E0,0E0,0E0,0E0,0E0,0E0,0E0,0E0,0E0,0E0,0E0,0E0,0E0,0E0,0E0,0E0,0E0,0E0,0E0,0E0,0E0,0E0,0E0,0E0,0E0,0E0,0E0,0E0,0E0,0E0,0E0,0E0,0E0,0E0,0E0,0E0,0E0,0E0,0E0,0E0,0E0,0E0,0E0,0E0,0E0,0E0,0E0,0E0,0E0,0E0,0E0,0E0,0E0,0E0,0E0,0E0,0E0,0E0,0E0,0E0,0E0,0E0,0E0,0E0,0E0,0E0,0E0,0E0,0E0,0E0,0E0,0E0,0E0,0E0,0E0,0E0,0E0,0E0,0E0,0E0,0E0,0E0,0E0,0E0],"parents":[2147483647,0,0,1,1,2,2,3,3,4,4,5,5,6,6,7,7,8,8,9,9,10,10,11,11,12,12,13,13,14,14,15,15,16,16,17,17,18,18,19,19,20,20,21,21,22,22,23,23,24,24,25,25,27,27,28,28,29,29,30,30,31,31,32,32,35,35,36,36,37,37,39,39,40,40,41,41,42,42,43,43,44,44,45,45,47,47,48,48,49,49,50,50,51,51,52,52,53,53,54,54,57,57,58,58,61,61,62,62,63,63,64,64,65,65,66,66,67,67,68,68,69,69,70,70,71,71,72,72,73,73,74,74,75,75,76,76,77,77,78,78,79,79,80,80,81,81,82,82,83,83,84,84,85,85,86,86,87,87,88,88,89,89,90,90,91,91,93,93,94,94,95,95,96,96,97,97,98,98,99,99,100,100,101,101,102,102,103,103,104,104],"right_children":[2,4,6,8,10,12,14,16,18,20,22,24,26,28,30,32,34,36,38,40,42,44,46,48,50,52,-1,54,56,58,60,62,64,-1,-1,66,68,70,-1,72,74,76,78,80,82,84,-1,86,88,90,92,94,96,98,100,-1,-1,102,104,-1,-1,106,108,110,112,114,116,118,120,122,124,126,128,130,132,134,136,138,140,142,144,146,148,150,152,154,156,158,160,162,164,166,-1,168,170,172,174,176,178,180,182,184,186,188,190,-1,-1,-1,-1,-1,-1,-1,-1,-1,-1,-1,-1,-1,-1,-1,-1,-1,-1,-1,-1,-1,-1,-1,-1,-1,-1,-1,-1,-1,-1,-1,-1,-1,-1,-1,-1,-1,-1,-1,-1,-1,-1,-1,-1,-1,-1,-1,-1,-1,-1,-1,-1,-1,-1,-1,-1,-1,-1,-1,-1,-1,-1,-1,-1,-1,-1,-1,-1,-1,-1,-1,-1,-1,-1,-1,-1,-1,-1,-1,-1,-1,-1,-1,-1,-1,-1],"split_conditions":[7.840978E-2,2.3591124E-2,7.5E-1,5E0,2.6439206E-4,7.818315E-1,3.5526252E-1,3.61E2,4.02E2,1.12E2,3E0,7.1666664E-1,2E0,1E0,1E0,3E0,6.8E0,5.313719E-5,1.818352E1,-5.6532186E-5,-1.05603656E-4,-3.6442478E-5,7.818315E-1,4.468861E-4,2.1820453E-1,1E0,-6.597235E-2,1.9542652E-3,1E0,5.1165305E-2,1E0,3E-45,6.234898E-1,6.761576E-2,-6.012784E-2,1.31E2,-8.058761E-5,1E0,1.1498466E-2,4.7E1,1.5E1,9.657866E-1,1E0,1.5635419E-1,2E2,-2.4917957E-5,-6.665754E-2,9.6931684E-1,-2.707419E-1,2.6439206E-4,1E0,9.4028366E1,2.9100357E-3,1.78E2,1.3386182E-3,-7.6040894E-2,5.459379E-2,2.1094908E-3,1E0,-7.216361E-2,6.3639104E-2,9.9974513E-1,1.543448E-4,3.2614416E-1,7.907757E-1,6.234898E-1,4.2E1,5E0,7.7012874E-2,2.2024776E-4,-9.377521E-1,4E0,4E0,-1.05603656E-4,1E0,1.19305E2,-6.660889E-1,2.6E3,2.2302747E-4,1.6316668E1,3E0,1.5126233E-3,2.855379E-3,8E0,1.0630521E-8,1E0,4.0221357E-1,-8.9780456E-1,5.2E1,1E0,-3.6442478E-5,5E0,-7.013101E-2,3.5715393E1,8.124159E-1,9.878067E-3,4.4678837E-1,5.107159E-1,-4.3669218E-4,8.8E1,8.978758E-1,1E0,1E0,-4.501886E-2,-5.051062E-2,-6.1804544E-2,-4.0257387E-2,-6.537218E-2,-6.348624E-2,-6.3934736E-2,-5.9025567E-2,-5.7730045E-2,-5.1055655E-2,-5.7478677E-2,-4.9690764E-2,-3.7808564E-2,-2.3101524E-3,-5.4015595E-2,2.5895007E-2,-3.824221E-2,-1.8116862E-2,-6.0823057E-2,-6.571589E-2,-2.8657462E-2,-5.9036996E-2,-4.0875375E-2,-5.769979E-2,-1.6349472E-2,-4.391512E-2,-4.239227E-2,-2.3977092E-2,-1.1262829E-2,-7.180062E-2,-6.532068E-2,-5.014214E-2,2.4418604E-2,-6.3377425E-2,-6.1108027E-2,-2.824315E-2,-4.1372392E-2,1.3786543E-2,-4.592841E-2,1.1173884E-2,1.8066062E-2,-1.24079045E-2,9.330069E-3,2.7530374E-2,7.955435E-3,-5.7536248E-2,-2.7020372E-2,-8.385332E-3,-3.4978848E-2,1.4176364E-2,-6.278908E-2,-1.6074324E-2,1.7896134E-2,-5.6218743E-2,3.7730515E-2,-1.12688E-2,-5.4259352E-2,-5.1375893E-3,5.5181747E-3,-7.298592E-2,1.3315987E-2,3.3809707E-2,2.3320623E-2,4.281507E-2,-6.32926E-2,8.30262E-3,-5.2715834E-2,-1.5562993E-2,3.6822814E-3,3.1478718E-2,1.0835982E-2,4.7405653E-2,8.8224356E-4,1.9929744E-2,2.5665058E-2,3.9042857E-2,3.0660376E-2,4.229667E-2,4.2835254E-2,5.1253375E-2,4.5018416E-2,-2.7045263E-2,5.578931E-2,1.3792078E-2,5.7271823E-2,6.3086316E-2,-7.1073055E-2,4.291684E-2],"split_indices":[107,107,129,98,110,44,107,77,6,6,26,127,26,61,61,98,127,110,32,108,110,108,44,110,107,119,0,110,67,90,67,32,35,0,0,14,108,35,0,88,19,37,72,102,6,108,0,47,37,110,71,99,110,88,108,0,0,108,115,0,0,47,90,37,41,35,120,17,102,109,41,26,26,110,61,112,47,2,108,127,86,110,90,86,32,17,38,41,1,61,108,120,0,112,47,90,102,102,108,19,102,115,115,108,37,0,0,0,0,0,0,0,0,0,0,0,0,0,0,0,0,0,0,0,0,0,0,0,0,0,0,0,0,0,0,0,0,0,0,0,0,0,0,0,0,0,0,0,0,0,0,0,0,0,0,0,0,0,0,0,0,0,0,0,0,0,0,0,0,0,0,0,0,0,0,0,0,0,0,0,0,0,0,0,0,0,0,0,0,0,0],"split_type":[0,0,0,0,0,0,0,0,0,0,0,0,0,0,0,0,0,0,0,0,0,0,0,0,0,0,0,0,0,0,0,0,0,0,0,0,0,0,0,0,0,0,0,0,0,0,0,0,0,0,0,0,0,0,0,0,0,0,0,0,0,0,0,0,0,0,0,0,0,0,0,0,0,0,0,0,0,0,0,0,0,0,0,0,0,0,0,0,0,0,0,0,0,0,0,0,0,0,0,0,0,0,0,0,0,0,0,0,0,0,0,0,0,0,0,0,0,0,0,0,0,0,0,0,0,0,0,0,0,0,0,0,0,0,0,0,0,0,0,0,0,0,0,0,0,0,0,0,0,0,0,0,0,0,0,0,0,0,0,0,0,0,0,0,0,0,0,0,0,0,0,0,0,0,0,0,0,0,0,0,0,0,0,0,0,0,0,0,0,0,0],"sum_hessian":[2.563697E5,1.1268186E5,1.4368784E5,8.661959E4,2.6062268E4,3.1244756E4,1.12443086E5,5.6265645E4,3.0353951E4,1.7353154E4,8.709114E3,2.1908992E4,9.335763E3,3.5925652E4,7.651743E4,5.6229168E4,3.6476303E1,2.3022705E4,7.3312456E3,1.5099926E4,2.253228E3,4.3113174E3,4.3977964E3,1.098423E3,2.081057E4,3.8120635E3,5.5236997E3,3.552202E4,4.036327E2,7.5973484E4,5.439477E2,4.2495918E4,1.3733249E4,1.6426878E1,2.0049423E1,1.9213334E4,3.8093708E3,7.3137715E3,1.7474163E1,6.4665117E3,8.633414E3,1.9712902E3,2.8193796E2,1.0295992E3,3.2817183E3,3.6960261E3,7.017705E2,7.623899E2,3.360331E2,1.257814E4,8.23243E3,3.3608066E2,3.475983E3,2.0809574E4,1.4712446E4,3.2359323E2,8.0039474E1,2.5132021E4,5.084146E4,3.6724844E2,1.7669925E2,1.6674936E4,2.5820982E4,7.684316E3,6.048933E3,1.8600033E4,6.133001E2,1.4397395E3,2.3696313E3,6.2167065E3,1.097065E3,4.933731E3,1.532781E3,4.916595E3,3.7168188E3,1.8033804E3,1.679098E2,2.3229791E2,4.964004E1,2.2114996E2,8.0844934E2,3.0749912E3,2.067271E2,1.7764153E3,1.9196108E3,6.862749E2,7.6115005E1,2.1360107E2,1.22432045E2,7.025325E3,5.552815E3,8.195365E3,3.7065083E1,8.199737E1,2.5408328E2,2.429768E3,1.0462146E3,9.295896E3,1.1513678E4,4.7041523E3,1.0008293E4,6.899948E3,1.8232074E4,5.047957E4,3.6188797E2,1.6520068E4,1.5486897E2,1.3365357E4,1.2455625E4,5.2367817E3,2.4475342E3,4.564412E3,1.4845214E3,1.0351313E4,8.248721E3,4.3878598E2,1.7451411E2,1.4193682E3,2.0371344E1,7.957324E2,1.573899E3,3.2942412E3,2.9224653E3,1.4408438E2,9.529805E2,2.354207E3,2.5795237E3,7.5926764E2,7.735133E2,2.8635986E3,2.0529968E3,3.6365505E3,8.026836E1,1.7280319E3,7.534847E1,3.0092176E1,1.3781763E2,1.7554506E2,5.675286E1,3.2667286E1,1.6972754E1,1.9203978E2,2.911018E1,1.5312222E2,6.553271E2,1.5326897E3,1.5423015E3,8.0241295E1,1.2648581E2,1.1035106E3,6.729047E2,1.6708922E2,1.7525216E3,6.5568787E2,3.0587015E1,3.6158844E1,3.995616E1,5.367902E1,1.5992206E2,7.8362564E1,4.4069473E1,6.8880356E3,1.3728946E2,2.3486284E3,3.2041863E3,1.450967E3,6.744398E3,2.2358372E1,5.9638996E1,2.1336542E2,4.071787E1,1.0601117E3,1.3696565E3,4.883646E1,9.973782E2,1.8027772E3,7.4931196E3,2.8888098E3,8.624867E3,2.4143386E3,2.289814E3,3.5109219E3,6.4973716E3,6.845096E3,5.4852345E1,1.8094922E4,1.371523E2,1.0407651E4,4.007192E4,5.707905E1,3.0480893E2],"tree_param":{"num_deleted":"0","num_feature":"147","num_nodes":"191","size_leaf_vector":"1"}},{"base_weights":[-1.3951083E-3,-1.2200959E0,9.975495E-1,-1.4316348E0,-5.534536E-1,4.364742E-1,1.2549156E0,-1.5085471E0,-1.2584065E0,-1.4410696E0,-4.677142E-1,-1.8267967E-1,5.9024364E-1,1.9159351E-1,1.3593421E0,-1.2528924E0,-1.5201943E0,-1.328828E0,-9.9642307E-1,-1.4565907E0,2.5054807E-2,-7.4328184E-1,2.4553774E-2,-1.5966165E0,3.9686707E-1,-6.868721E-1,6.475165E-1,-4.6350396E-1,1.0698078E0,1.1653181E0,1.4745244E0,-2.6296625E-1,-1.3023143E0,-1.5592521E0,-1.431539E0,-1.3363507E0,3.8653603E-1,-1.4221313E0,-8.028532E-1,-6.008159E-1,-1.4688512E0,-9.474928E-1,-4.3725464E-1,-6.539343E-1,2.0478599E-1,-6.4008534E-2,-3.301369E-2,-5.12022E-1,5.1422524E-1,-1.1356783E0,-1.7860672E-1,1.5126558E-1,7.349562E-1,-6.4471245E-2,9.270046E-1,-7.316757E-2,1.0937622E0,1.1794066E0,-5.5614686E-1,-6.714951E-2,1.4786536E0,-1.1335763E0,1.0884306E0,-1.3904731E0,-7.38329E-1,-1.5784069E0,-1.5180616E0,-1.3704116E0,-1.5152954E0,-1.2564738E0,-1.4478711E0,7.712245E-1,-4.6074953E-2,-1.454555E0,1.6065028E-1,-1.2562456E0,-6.549867E-1,-5.622878E-2,1.0280555E-2,-1.55498E0,-1.1960846E0,-1.2853825E0,-8.3360076E-1,-9.087239E-1,-2.903309E-1,-1.04125015E-1,-6.486869E-2,-2.3413204E-2,4.2076996E-1,3.548962E-1,-9.561671E-1,1.9854032E-1,7.9980683E-1,-1.2464908E0,6.786588E-1,-3.599162E-1,8.161187E-1,-1.721565E-1,3.8985407E-1,5.215869E-1,1.0054338E0,9.6149045E-1,-1.3622458E0,-3.063887E-1,1.1284714E0,1.1859709E0,-6.549883E-2,1.7260493E-1,-7.677481E-2,1.4842353E0,-1.4312701E0,-5.164087E-2,-1.4403856E-2,2.5592389E-2,5.930887E-2,-2.8145932E-2,-5.805837E-2,-3.9654403E-4,-5.0125513E-2,-6.1423454E-2,-6.3710645E-2,-6.0844716E-2,1.3798762E-2,-4.615032E-2,-5.582307E-2,-6.48352E-2,-5.8573455E-2,-4.627979E-2,-5.613242E-2,-5.1457886E-2,-6.1394315E-2,-1.0140177E-2,4.38713E-2,-4.139718E-2,-5.986146E-2,2.9615631E-2,-1.3767613E-2,-3.8139503E-2,-6.503735E-2,-5.668961E-2,-2.3849424E-2,-6.3249975E-2,-3.8034007E-2,-1.9996533E-2,-5.5394337E-2,-4.0544797E-2,-6.494173E-2,-3.718307E-2,-2.1715935E-2,-1.7446153E-2,-6.514263E-2,-1.35452915E-2,2.3977062E-2,-3.3843346E-2,2.626608E-3,-2.7496912E-2,3.8222976E-3,-1.2299602E-3,2.018811E-2,4.5248806E-2,-7.7619664E-3,-5.8702454E-2,1.640829E-4,-1.4255618E-2,1.8055694E-2,-1.598966E-2,3.3733513E-2,-5.5057094E-2,-2.4545677E-2,5.3549718E-2,-3.8654625E-3,-9.231442E-3,-7.221116E-2,4.686027E-2,-4.787489E-3,-8.396615E-5,-4.44446E-2,-1.0526787E-2,2.1468572E-2,5.965236E-3,2.8241465E-2,2.991617E-2,4.3483328E-2,-1.338245E-2,4.0241756E-2,-2.7599746E-2,-7.0965625E-2,-3.249629E-2,4.3460872E-2,3.2109033E-2,4.737064E-2,4.1696552E-2,5.131916E-2,-6.3841715E-2,2.3664435E-2,5.953368E-2,-6.455053E-2,-1.3608803E-2,-6.618007E-2],"categories":[],"categories_nodes":[],"categories_segments":[],"categories_sizes":[],"default_left":[0,0,0,0,0,0,0,0,0,0,0,0,0,0,0,0,0,0,0,0,0,0,0,0,0,0,0,0,0,0,0,0,0,0,0,0,0,0,0,0,0,0,0,0,0,0,0,0,0,0,0,0,0,0,0,0,0,0,0,0,0,0,0,0,0,0,0,0,0,0,0,0,0,0,0,0,0,0,0,0,0,0,0,0,0,0,0,0,0,0,0,0,0,0,0,0,0,0,0,0,0,0,0,0,0,0,0,0,0,0,0,0,0,0,0,0,0,0,0,0,0,0,0,0,0,0,0,0,0,0,0,0,0,0,0,0,0,0,0,0,0,0,0,0,0,0,0,0,0,0,0,0,0,0,0,0,0,0,0,0,0,0,0,0,0,0,0,0,0,0,0,0,0,0,0,0,0,0,0,0,0,0,0,0,0,0,0,0,0,0,0,0,0,0,0,0,0,0,0],"id":7,"left_children":[1,3,5,7,9,11,13,15,17,19,21,23,25,27,29,31,33,35,37,39,-1,41,43,45,47,49,51,53,55,57,59,61,63,65,67,69,71,73,75,77,79,81,83,85,87,-1,-1,89,91,93,95,97,99,-1,101,-1,103,105,107,-1,109,111,113,115,117,119,121,123,125,127,129,131,-1,133,135,137,139,-1,-1,141,143,145,147,149,151,153,-1,155,157,159,161,163,165,167,169,171,173,175,177,179,181,183,185,187,189,191,-1,193,-1,195,197,-1,-1,-1,-1,-1,-1,-1,-1,-1,-1,-1,-1,-1,-1,-1,-1,-1,-1,-1,-1,-1,-1,-1,-1,-1,-1,-1,-1,-1,-1,-1,-1,-1,-1,-1,-1,-1,-1,-1,-1,-1,-1,-1,-1,-1,-1,-1,-1,-1,-1,-1,-1,-1,-1,-1,-1,-1,-1,-1,-1,-1,-1,-1,-1,-1,-1,-1,-1,-1,-1,-1,-1,-1,-1,-1,-1,-1,-1,-1,-1,-1,-1,-1,-1,-1,-1,-1,-1],"loss_changes":[3.087248E5,1.6105531E4,2.0121281E4,1.1482031E3,2.0915273E3,4.1732646E3,1.0606516E4,1.716875E2,4.871289E2,8.0881836E1,3.40563E3,7.148886E3,2.5694072E3,4.919106E3,1.9375938E3,1.2709424E2,1.905625E2,2.732539E2,4.6238086E2,2.1555664E1,0E0,1.0038545E3,1.1021176E3,1.8613281E0,6.608163E2,3.4273474E2,1.4574141E3,7.8241406E3,2.593081E2,7.885781E2,7.1790625E2,1.5611722E2,1.2056787E2,2.2671875E1,8.241016E1,1.7961719E2,5.7993393E1,9.199902E1,2.5822534E2,2.9020061E1,4.8695312E1,3.6705957E2,4.452528E2,1.0050633E3,3.5129068E2,0E0,0E0,2.7416855E2,4.9326306E2,1.6361755E2,1.2892975E2,3.8913043E2,1.6464385E3,0E0,1.78729E2,0E0,1.7761963E2,6.002383E2,2.6506253E2,0E0,8.9166406E2,7.57959E0,5.3007317E0,8.6543945E1,1.2916856E2,7.7578125E0,7.4603516E1,4.954297E1,3.1109375E1,1.7233594E2,1.1499414E2,2.6977985E1,0E0,2.4592041E1,1.204068E1,1.0102783E2,1.2857227E2,0E0,0E0,2.2614258E1,7.3579895E1,2.1668335E2,1.9936914E2,5.1721326E2,2.1197186E2,1.5295549E2,0E0,2.742325E2,1.3901044E2,1.0420137E2,2.3143982E2,3.665667E2,1.5143701E2,5.8559692E1,2.5429432E1,1.10482315E2,3.7578568E1,3.411941E2,2.7882565E2,1.0969272E3,2.6146484E2,1.27558716E2,4.4887466E0,6.573584E1,6.0463867E1,4.4165625E2,0E0,1.3213231E2,0E0,6.992656E2,2.3058044E1,0E0,0E0,0E0,0E0,0E0,0E0,0E0,0E0,0E0,0E0,0E0,0E0,0E0,0E0,0E0,0E0,0E0,0E0,0E0,0E0,0E0,0E0,0E0,0E0,0E0,0E0,0E0,0E0,0E0,0E0,0E0,0E0,0E0,0E0,0E0,0E0,0E0,0E0,0E0,0E0,0E0,0E0,0E0,0E0,0E0,0E0,0E0,0E0,0E0,0E0,0E0,0E0,0E0,0E0,0E0,0E0,0E0,0E0,0E0,0E0,0E0,0E0,0E0,0E0,0E0,0E0,0E0,0E0,0E0,0E0,0E0,0E0,0E0,0E0,0E0,0E0,0E0,0E0,0E0,0E0,0E0,0E0,0E0,0E0,0E0,0E0,0E0,0E0],"parents":[2147483647,0,0,1,1,2,2,3,3,4,4,5,5,6,6,7,7,8,8,9,9,10,10,11,11,12,12,13,13,14,14,15,15,16,16,17,17,18,18,19,19,21,21,22,22,23,23,24,24,25,25,26,26,27,27,28,28,29,29,30,30,31,31,32,32,33,33,34,34,35,35,36,36,37,37,38,38,39,39,40,40,41,41,42,42,43,43,44,44,47,47,48,48,49,49,50,50,51,51,52,52,54,54,56,56,57,57,58,58,60,60,61,61,62,62,63,63,64,64,65,65,66,66,67,67,68,68,69,69,70,70,71,71,73,73,74,74,75,75,76,76,79,79,80,80,81,81,82,82,83,83,84,84,85,85,87,87,88,88,89,89,90,90,91,91,92,92,93,93,94,94,95,95,96,96,97,97,98,98,99,99,100,100,101,101,102,102,103,103,104,104,105,105,107,107,109,109,110,110],"right_children":[2,4,6,8,10,12,14,16,18,20,22,24,26,28,30,32,34,36,38,40,-1,42,44,46,48,50,52,54,56,58,60,62,64,66,68,70,72,74,76,78,80,82,84,86,88,-1,-1,90,92,94,96,98,100,-1,102,-1,104,106,108,-1,110,112,114,116,118,120,122,124,126,128,130,132,-1,134,136,138,140,-1,-1,142,144,146,148,150,152,154,-1,156,158,160,162,164,166,168,170,172,174,176,178,180,182,184,186,188,190,192,-1,194,-1,196,198,-1,-1,-1,-1,-1,-1,-1,-1,-1,-1,-1,-1,-1,-1,-1,-1,-1,-1,-1,-1,-1,-1,-1,-1,-1,-1,-1,-1,-1,-1,-1,-1,-1,-1,-1,-1,-1,-1,-1,-1,-1,-1,-1,-1,-1,-1,-1,-1,-1,-1,-1,-1,-1,-1,-1,-1,-1,-1,-1,-1,-1,-1,-1,-1,-1,-1,-1,-1,-1,-1,-1,-1,-1,-1,-1,-1,-1,-1,-1,-1,-1,-1,-1,-1,-1,-1,-1,-1],"split_conditions":[8.762167E-2,2.5000123E-2,2.7445227E-1,6E0,4.530533E-18,-2.2252093E-1,2.5E-1,9.132823E-24,5.313719E-5,6.08E2,2.6439206E-4,0E0,1.1679749E-2,0E0,5.55E2,-9.8846835E-1,3E0,1.03E2,1.2995337E-2,-1.9323834E2,2.5054807E-2,3.7E1,-2.2252093E-1,8E2,1.79E2,3.3333335E-2,-7.818315E-1,5E0,5E0,9.9798876E-1,4E0,4.4E1,6.13E2,2E0,4.3388373E-1,4.3388373E-1,1.4145642E2,2E0,-2.2252093E-1,1.51E2,-8.138889E-6,-2.2252093E-1,-2.2252093E-1,4E0,1.5618498E-3,-6.4008534E-2,-3.301369E-2,-7.587581E-1,-5.1844938E-5,8.037919E-1,2.9100357E-3,2.9E1,7.991831E-4,-6.4471245E-2,9.9724954E-1,-7.316757E-2,9.0400004E-1,1E0,9.3E1,-6.714951E-2,9E-1,2E0,2.2617062E-24,-9.680771E-1,1E1,3.4007992E-16,1.5E2,-9.377521E-1,-2.2252093E-1,1.5420404E-1,2E0,1.6E1,-4.6074953E-2,1.4728942E-4,2.1348638E-2,4E0,2.9982238E-38,-5.622878E-2,1.0280555E-2,5.1E1,2.3E1,4E0,-2.1879046E-5,4E0,1.07E2,-7.5932264E-1,-6.486869E-2,-7.818315E-1,-7.818315E-1,7.3E1,3E1,9.8E1,3E0,1.3319007E-3,-5.712682E-1,5.2915E0,4.92E2,8.4864426E-1,9E0,1.15E2,6.4160514E-1,7.1428575E-2,-1.0116832E-1,9.76419E-1,-1.1746841E-1,6.234898E-1,-6.549883E-2,1.46E2,-7.677481E-2,1E0,7.018513E-2,-5.164087E-2,-1.4403856E-2,2.5592389E-2,5.930887E-2,-2.8145932E-2,-5.805837E-2,-3.9654403E-4,-5.0125513E-2,-6.1423454E-2,-6.3710645E-2,-6.0844716E-2,1.3798762E-2,-4.615032E-2,-5.582307E-2,-6.48352E-2,-5.8573455E-2,-4.627979E-2,-5.613242E-2,-5.1457886E-2,-6.1394315E-2,-1.0140177E-2,4.38713E-2,-4.139718E-2,-5.986146E-2,2.9615631E-2,-1.3767613E-2,-3.8139503E-2,-6.503735E-2,-5.668961E-2,-2.3849424E-2,-6.3249975E-2,-3.8034007E-2,-1.9996533E-2,-5.5394337E-2,-4.0544797E-2,-6.494173E-2,-3.718307E-2,-2.1715935E-2,-1.7446153E-2,-6.514263E-2,-1.35452915E-2,2.3977062E-2,-3.3843346E-2,2.626608E-3,-2.7496912E-2,3.8222976E-3,-1.2299602E-3,2.018811E-2,4.5248806E-2,-7.7619664E-3,-5.8702454E-2,1.640829E-4,-1.4255618E-2,1.8055694E-2,-1.598966E-2,3.3733513E-2,-5.5057094E-2,-2.4545677E-2,5.3549718E-2,-3.8654625E-3,-9.231442E-3,-7.221116E-2,4.686027E-2,-4.787489E-3,-8.396615E-5,-4.44446E-2,-1.0526787E-2,2.1468572E-2,5.965236E-3,2.8241465E-2,2.991617E-2,4.3483328E-2,-1.338245E-2,4.0241756E-2,-2.7599746E-2,-7.0965625E-2,-3.249629E-2,4.3460872E-2,3.2109033E-2,4.737064E-2,4.1696552E-2,5.131916E-2,-6.3841715E-2,2.3664435E-2,5.953368E-2,-6.455053E-2,-1.3608803E-2,-6.618007E-2],"split_indices":[107,107,107,98,30,35,129,29,110,4,110,43,29,43,88,42,98,98,107,103,